svm_type c_svc
kernel_type rbf
gamma 0.125
nr_class 2
total_sv 2892
rho 1.96029
label 1 -1
nr_sv 826 2066
SV
14.60189102938549 1:0.03 3:0.17377 4:0.025 6:0.3 7:0.24 8:0.06 9:0.06 11:0.0520968 14:0.06 19:0.04 33:0.12 34:0.06 63:0.06 87:0.06 111:0.08 116:0.05 118:0.04 130:0.18 140:0.2 143:0.06 155:0.0482353 163:0.09 164:0.11 201:0.07 219:0.16 220:0.14 260:0.2 303:0.8 304:0.6 305:0.2 306:0.2 309:0.4 315:0.25 319:0.333333 324:0.25 325:0.333333 326:0.333333 328:0.333333 330:0.333333 331:0.25 358:0.666667 362:0.333333 366:0.333333 369:0.333333 379:0.333333 388:0.5 393:0.333333 
9.695751576807247 1:0.0731707 3:0.127149 4:0.0914634 6:0.146341 17:0.0731707 22:0.097561 27:0.146341 35:0.0731707 44:0.086128 47:0.195122 49:0.0798226 53:0.146341 69:0.0731707 87:0.0731707 108:0.146341 113:0.0609756 136:0.0731707 156:0.097561 188:0.243902 195:0.195122 199:0.205575 212:0.146341 301:0.146341 303:0.6 305:0.2 306:0.2 307:0.2 309:0.2 311:0.4 312:0.25 313:0.25 316:0.333333 319:0.333333 324:0.25 325:0.333333 329:0.333333 335:0.333333 340:0.25 345:0.333333 356:0.333333 377:0.5 412:0.5 
2.516891603313499 1:0.0245902 2:0.0546448 3:0.0854609 4:0.0068306 5:0.0701053 6:0.0491803 7:0.0655738 8:0.0491803 11:0.0711705 12:0.0107468 14:0.0327869 15:0.0163934 17:0.0163934 20:0.0218579 22:0.0437158 25:0.0273224 27:0.0655738 29:0.0321038 33:0.131148 35:0.0327869 39:0.00589589 40:0.0437158 42:0.026867 43:0.0204918 44:0.00964822 48:0.010929 52:0.010929 57:0.0327869 58:0.0192964 60:0.0273224 63:0.0163934 69:0.0163934 74:0.0327869 78:0.0437158 87:0.0163934 99:0.0655738 100:0.0874317 108:0.0327869 116:0.0136612 135:0.0218579 136:0.0163934 153:0.0236234 155:0.00658952 156:0.0218579 163:0.0245902 169:0.0218579 171:0.0382514 182:0.0382514 188:0.0546448 194:0.0273224 195:0.0437158 198:0.0327869 199:0.0460578 211:0.0601093 217:0.0273224 230:0.0751366 231:0.0699454 251:0.0163934 263:0.0382514 282:0.0437158 296:0.0437158 303:1 304:0.6 305:0.6 306:0.4 307:0.4 308:0.2 309:0.4 310:0.6 311:0.4 312:0.5 313:0.25 314:0.666667 315:0.25 316:0.333333 317:0.25 318:0.25 319:0.333333 322:0.666667 324:0.25 325:0.333333 329:0.666667 333:0.333333 334:0.333333 335:0.333333 336:0.333333 337:1 338:0.25 340:0.25 341:1 343:0.666667 344:0.333333 350:1 351:0.333333 352:0.333333 353:0.333333 355:0.333333 356:0.333333 361:0.333333 364:0.333333 370:0.5 371:0.666667 375:0.5 377:0.5 380:0.333333 385:0.5 393:0.333333 398:0.5 412:0.5 415:0.5 417:0.333333 419:0.333333 423:0.5 429:0.5 431:0.333333 446:0.5 449:0.333333 
3.709022679442885 1:0.0272727 2:0.0454545 3:0.0631893 4:0.0113636 5:0.0777531 6:0.109091 7:0.0818182 8:0.0272727 9:0.0272727 11:0.0236804 14:0.0545455 15:0.0545455 17:0.0272727 22:0.0363636 24:0.0363636 28:0.0518182 29:0.106818 33:0.163636 45:0.0454545 52:0.0181818 58:0.0160511 61:0.0363636 69:0.0272727 70:0.0545455 72:0.0772727 78:0.0363636 82:0.0454545 84:0.0545455 87:0.0545455 100:0.0727273 108:0.109091 111:0.0363636 118:0.0181818 121:0.0454545 129:0.0272727 140:0.0909091 143:0.0272727 153:0.0262005 155:0.0109626 160:0.0163059 171:0.0636364 182:0.0636364 194:0.0454545 195:0.145455 198:0.0545455 199:0.153247 201:0.0318182 211:0.1 230:0.125 231:0.116364 282:0.0727273 303:1 304:0.6 305:0.6 306:0.2 307:0.2 308:0.4 309:0.2 311:0.2 312:0.25 314:0.666667 316:1 318:0.5 319:0.666667 322:0.333333 324:0.5 326:0.666667 328:0.333333 330:0.333333 331:0.25 333:0.333333 335:1 338:0.25 340:0.25 341:0.333333 346:0.25 351:0.333333 353:0.666667 357:0.333333 358:0.333333 362:0.333333 369:0.333333 394:0.333333 400:0.333333 411:0.333333 426:0.333333 431:0.333333 436:0.5 443:0.5 
12.74832124422946 2:0.0793651 3:0.11033 4:0.0396825 6:0.047619 7:0.047619 8:0.047619 11:0.0413466 12:0.124868 14:0.047619 24:0.126984 25:0.0793651 32:0.156085 38:0.0780423 39:0.0171261 43:0.0297619 47:0.190476 78:0.0634921 119:0.0793651 126:0.111111 130:0.142857 131:0.0634921 140:0.0793651 143:0.047619 146:0.0634921 234:0.190476 278:0.111111 279:0.333333 303:0.8 304:0.6 305:0.2 307:0.4 308:0.2 310:0.4 311:0.4 318:0.25 326:0.333333 327:0.333333 328:0.666667 330:0.333333 331:0.5 342:0.333333 352:0.333333 362:0.333333 364:0.333333 377:0.5 400:0.333333 402:0.5 404:0.333333 406:0.333333 409:0.5 411:0.333333 416:0.5 
5.560932223043452 1:0.016129 2:0.107527 3:0.03737 4:0.0134409 5:0.0229915 6:0.16129 9:0.0645161 11:0.028009 12:0.0422939 14:0.16129 15:0.0322581 16:0.0376344 17:0.0322581 20:0.0430108 24:0.0860215 25:0.0537634 27:0.0645161 29:0.126344 30:0.0430108 32:0.105735 33:0.193548 42:0.0528674 43:0.0201613 48:0.0215054 70:0.0645161 78:0.0860215 100:0.0430108 111:0.0430108 115:0.0537634 127:0.0573477 136:0.0322581 140:0.107527 143:0.0322581 160:0.0385731 175:0.0645161 194:0.0537634 198:0.0645161 201:0.0376344 211:0.11828 230:0.147849 249:0.0430108 279:0.0752688 282:0.0860215 303:0.8 304:0.6 305:0.8 306:0.2 307:0.6 308:0.6 309:0.2 310:0.2 311:0.2 312:0.25 316:0.333333 318:0.25 322:0.333333 324:0.25 325:0.333333 327:0.333333 329:0.333333 330:0.333333 331:0.25 333:0.333333 337:0.333333 338:0.25 339:0.333333 340:0.25 341:0.333333 342:0.333333 343:0.333333 351:0.666667 353:0.333333 358:0.333333 362:0.333333 364:0.333333 366:0.333333 371:0.333333 385:0.5 389:0.5 406:0.333333 411:0.333333 426:0.333333 429:0.5 441:0.5 443:0.5 447:0.333333 
8.156163340756068 1:0.0172414 3:0.0599209 4:0.0431034 6:0.206897 7:0.0344828 8:0.103448 9:0.0689655 10:0.0311852 14:0.0344828 27:0.0689655 28:0.0655172 34:0.0344828 46:0.0574713 51:0.0574713 52:0.0229885 55:0.0344828 56:0.045977 63:0.0344828 64:0.0574713 70:0.0689655 81:0.0689655 82:0.0574713 87:0.0344828 97:0.0229885 99:0.0344828 105:0.045977 106:0.0689655 123:0.066092 142:0.137931 152:0.0402299 157:0.045977 160:0.0206167 208:0.091954 255:0.0804598 273:0.34748 303:0.8 304:0.6 305:0.2 307:0.2 308:0.2 309:0.2 311:0.2 312:0.5 313:0.5 315:0.5 316:0.333333 318:0.5 319:0.333333 321:0.25 322:0.333333 323:0.666667 327:0.333333 330:0.333333 332:0.25 335:0.333333 336:0.333333 339:0.333333 342:0.333333 343:0.333333 345:0.333333 356:0.333333 365:0.333333 367:0.5 380:0.333333 381:0.333333 385:0.5 394:0.333333 399:0.333333 424:0.5 433:0.5 445:0.333333 
7.663206570418177 1:0.0508475 2:0.0847458 6:0.20339 7:0.101695 8:0.152542 9:0.101695 15:0.0508475 17:0.0508475 24:0.0677966 26:0.0677966 33:0.101695 34:0.101695 52:0.0338983 53:0.101695 58:0.0299258 66:0.0677966 70:0.101695 77:0.0508475 78:0.0677966 81:0.0338983 84:0.0508475 85:0.101695 87:0.101695 100:0.0677966 108:0.101695 121:0.169492 131:0.0677966 171:0.118644 175:0.101695 177:0.0677966 194:0.0847458 195:0.135593 198:0.101695 199:0.142857 211:0.186441 230:0.233051 231:0.216949 233:0.0847458 272:0.169492 273:0.170795 282:0.135593 303:0.4 304:0.4 305:0.4 307:0.4 309:0.4 312:0.25 313:0.25 314:0.333333 315:0.25 316:0.333333 317:0.25 318:0.5 319:1 322:0.333333 324:0.25 326:0.333333 328:0.333333 333:0.333333 335:0.333333 340:0.25 341:0.333333 350:0.333333 351:0.333333 352:0.333333 353:0.333333 381:0.333333 389:0.5 404:0.333333 410:0.333333 422:0.333333 
10.48248127896228 2:0.104167 3:0.108607 6:0.125 14:0.125 15:0.0625 22:0.0833333 26:0.0833333 30:0.0833333 32:0.102431 33:0.25 35:0.0625 50:0.123457 66:0.0833333 72:0.177083 78:0.0833333 87:0.0625 91:0.104167 108:0.125 117:0.104167 135:0.0833333 144:0.145833 156:0.0833333 188:0.208333 194:0.104167 195:0.166667 198:0.125 199:0.175595 211:0.229167 230:0.572917 238:0.208333 278:0.145833 282:0.166667 303:0.4 305:0.4 306:0.2 307:0.2 308:0.4 309:0.4 312:0.25 315:0.25 316:0.333333 318:0.25 319:0.333333 320:0.25 324:0.25 325:0.333333 329:0.333333 331:0.25 333:0.333333 335:0.333333 340:0.25 341:0.333333 345:0.333333 349:0.333333 350:0.333333 351:0.333333 353:0.333333 373:0.5 
12.65274132302038 2:0.0943396 3:0.0327869 4:0.0235849 6:0.113208 8:0.0566038 12:0.0742138 15:0.0566038 23:0.0566038 24:0.0754717 33:0.113208 34:0.0566038 45:0.0943396 47:0.0754717 51:0.0943396 55:0.0566038 69:0.0566038 78:0.0754717 87:0.0566038 95:0.0943396 106:0.113208 108:0.113208 117:0.0943396 131:0.226415 143:0.0566038 194:0.0943396 195:0.150943 198:0.113208 199:0.15903 201:0.0660377 211:0.207547 230:0.259434 231:0.241509 282:0.150943 303:0.6 304:0.4 305:0.2 307:0.4 309:0.4 311:0.4 312:0.25 313:0.25 316:0.333333 318:0.25 319:0.333333 321:0.25 323:0.333333 324:0.25 325:0.333333 328:0.333333 331:0.25 333:0.333333 335:0.333333 336:0.333333 339:0.333333 340:0.25 341:0.333333 351:0.333333 353:0.333333 367:0.5 373:0.5 394:0.333333 395:0.5 450:0.5 
19.11526432103693 1:0.0454545 4:0.113636 6:0.0909091 10:0.164431 14:0.0909091 18:0.0606061 20:0.121212 21:0.136364 31:0.181818 35:0.0909091 43:0.0568182 47:0.121212 100:0.121212 123:0.174242 154:0.0887052 168:0.212121 173:0.212121 303:0.4 304:0.2 305:0.2 306:0.6 308:0.2 309:0.2 311:0.4 322:0.333333 327:0.333333 333:0.333333 334:0.333333 340:0.25 346:0.25 358:0.333333 359:0.333333 386:0.333333 389:0.5 451:0.5 
8.768527529321732 1:0.0348837 4:0.0290698 6:0.0697674 10:0.378574 12:0.137209 13:0.0930233 16:0.244186 18:0.0465116 26:0.186047 28:0.132558 29:0.136628 31:0.139535 38:0.343023 48:0.0465116 50:0.137812 51:0.116279 56:0.372093 90:0.0620155 123:0.267442 154:0.0680761 157:0.372093 162:0.0417128 179:0.116279 207:0.186047 283:0.255814 303:0.4 304:0.4 305:0.4 306:0.2 307:0.2 308:0.6 310:0.2 312:0.75 313:0.25 320:0.25 327:0.333333 333:0.333333 348:0.333333 442:0.333333 
0.5389705376434348 1:0.195652 3:0.0755524 6:0.26087 8:0.130435 10:0.235923 12:0.171014 13:0.173913 16:0.152174 29:0.255435 51:0.217391 56:0.347826 58:0.0767663 123:0.25 157:0.347826 171:0.304348 216:0.565217 246:0.217391 303:0.4 304:0.6 305:0.4 308:0.2 312:0.25 313:0.25 314:0.333333 327:0.333333 428:0.5 452:0.333333 
2.711176251047167 1:0.157895 7:0.157895 9:0.157895 31:0.157895 51:0.526316 64:0.263158 77:0.157895 192:0.210526 303:0.2 304:0.2 308:0.2 312:0.25 315:0.25 317:0.25 347:0.25 356:0.666667 360:0.333333 364:0.333333 375:0.5 407:0.333333 413:0.333333 417:0.333333 428:0.5 
8.666020302834312 1:0.130435 7:0.130435 10:0.353885 18:0.26087 20:0.173913 31:0.130435 64:0.217391 77:0.130435 154:0.254545 303:0.2 304:0.2 306:0.4 308:0.2 315:0.25 317:0.25 347:0.25 356:0.666667 364:0.333333 370:0.25 396:0.333333 407:0.333333 413:0.333333 417:0.333333 428:0.5 
15.8946309600448 1:0.1875 4:0.078125 6:0.1875 8:0.1875 9:0.1875 77:0.1875 138:0.25 160:0.112103 192:0.25 303:0.4 304:0.4 317:0.25 330:0.333333 343:0.333333 353:0.333333 362:0.333333 
21.39224539417494 1:0.142857 3:0.0827479 6:0.285714 9:0.142857 10:0.129196 11:0.12404 77:0.142857 146:0.190476 160:0.0854119 192:0.190476 303:0.4 304:0.6 317:0.25 331:0.25 362:0.333333 377:0.5 398:0.5 428:0.5 
6.503432413080907 1:0.0625 3:0.108607 6:0.0625 9:0.0625 10:0.16957 11:0.0542675 22:0.333333 31:0.0625 35:0.0625 47:0.166667 64:0.104167 77:0.0625 146:0.25 148:0.125 192:0.0833333 203:0.145833 303:0.4 304:0.6 306:0.2 308:0.2 309:0.2 311:0.2 315:0.25 317:0.25 331:0.25 332:0.25 347:0.25 350:0.333333 356:0.333333 364:0.333333 377:0.5 398:0.5 407:0.333333 413:0.333333 417:0.333333 428:0.5 432:0.5 
2.235501287605526 1:0.0882353 4:0.0245098 7:0.117647 8:0.0588235 9:0.0588235 10:0.159595 11:0.0510753 12:0.0385621 13:0.0784314 15:0.0588235 16:0.0686275 18:0.0392157 22:0.235294 25:0.0980392 31:0.176471 32:0.0964052 34:0.0588235 35:0.117647 37:0.0522876 38:0.0964052 44:0.0346201 49:0.0641711 51:0.0980392 52:0.0392157 53:0.117647 56:0.0784314 58:0.0346201 63:0.0588235 82:0.0980392 99:0.0588235 110:0.0735294 112:0.0784314 154:0.0573975 156:0.156863 157:0.0784314 158:0.0784314 162:0.0351696 171:0.137255 172:0.127451 191:0.169935 208:0.156863 255:0.137255 268:0.313725 270:0.254902 303:0.4 304:1 305:0.6 306:0.4 307:0.2 308:0.4 309:0.6 310:0.2 311:0.2 312:0.75 313:0.5 314:0.333333 315:0.25 318:0.25 322:0.333333 324:0.5 350:0.333333 354:0.25 362:0.333333 367:0.5 385:0.5 389:0.5 390:0.25 431:0.666667 
8.966097476877341 1:0.15 4:0.03125 7:0.15 8:0.15 10:0.0678279 11:0.065121 12:0.0491667 15:0.15 16:0.2625 22:0.2 23:0.075 24:0.1 32:0.122917 35:0.15 38:0.122917 51:0.125 56:0.1 58:0.0441406 59:0.1 82:0.25 110:0.09375 122:0.0875 124:0.35 156:0.2 157:0.1 168:0.175 171:0.175 207:0.1 208:0.4 268:0.4 270:0.325 281:0.25 283:0.275 303:0.4 304:0.8 305:0.4 306:0.2 307:0.4 308:0.2 309:0.2 310:0.2 312:0.25 313:0.25 314:0.666667 318:0.25 324:0.25 326:0.333333 327:0.333333 334:0.333333 350:0.333333 354:0.25 388:0.5 409:0.5 416:0.5 449:0.333333 
4.286385523086562 1:0.0903614 3:0.0209362 4:0.0301205 6:0.0722892 8:0.144578 9:0.0361446 11:0.0627672 15:0.108434 16:0.0843373 20:0.0481928 22:0.144578 24:0.0963855 26:0.0481928 27:0.0722892 30:0.0481928 35:0.108434 36:0.0722892 38:0.0592369 40:0.0481928 45:0.240964 52:0.0240964 53:0.144578 58:0.0212726 65:0.120482 67:0.0481928 71:0.0722892 75:0.0963855 82:0.120482 91:0.180723 97:0.0240964 110:0.0451807 113:0.0301205 122:0.0421687 124:0.0843373 126:0.0843373 156:0.144578 169:0.0481928 171:0.0843373 188:0.120482 191:0.104418 207:0.0481928 208:0.192771 222:0.108434 240:0.108434 276:0.108434 303:0.6 304:0.6 305:0.4 306:0.4 307:0.6 308:0.2 309:0.4 310:0.4 311:0.2 312:0.25 313:0.25 314:0.333333 315:0.5 316:0.333333 317:0.25 318:0.25 320:0.25 321:0.25 324:0.25 325:0.333333 326:0.333333 327:0.666667 337:0.333333 338:0.25 343:0.333333 347:0.25 354:0.25 355:0.666667 359:0.333333 360:0.333333 382:0.333333 387:0.333333 402:0.5 437:0.333333 449:0.333333 
3.919690790486476 1:0.09375 3:0.0434426 4:0.015625 6:0.0375 7:0.15 8:0.15 9:0.1125 11:0.0976815 13:0.05 15:0.0375 16:0.0875 22:0.15 24:0.05 30:0.05 35:0.1125 45:0.0625 47:0.05 49:0.0409091 50:0.0740741 52:0.025 53:0.075 58:0.0220703 65:0.1875 66:0.1 67:0.025 71:0.075 75:0.05 82:0.0625 91:0.0625 96:0.0375 110:0.140625 111:0.05 113:0.03125 116:0.0625 124:0.0875 132:0.0625 152:0.04375 156:0.15 164:0.1375 169:0.05 171:0.0875 188:0.125 208:0.1 235:0.125 240:0.1125 243:0.0875 268:0.2 270:0.1625 281:0.125 303:0.8 304:0.6 305:0.6 306:0.2 307:0.2 308:0.2 309:0.2 311:0.4 312:0.75 313:0.25 314:0.333333 315:0.75 316:0.333333 317:0.25 318:0.25 320:0.25 321:0.25 324:0.5 325:0.666667 327:0.333333 328:0.333333 332:0.25 338:0.25 350:0.333333 354:0.25 369:0.333333 376:0.666667 388:0.5 415:0.5 449:0.666667 450:0.5 
3.035827417625002 1:0.0642857 3:0.0248244 6:0.0428571 7:0.171429 8:0.0428571 9:0.128571 11:0.111636 14:0.0428571 15:0.0428571 16:0.05 23:0.0428571 24:0.0571429 37:0.0380952 39:0.0154135 43:0.0803571 44:0.0252232 49:0.0935065 53:0.0857143 54:0.0380952 55:0.0428571 57:0.0857143 58:0.0252232 61:0.0571429 63:0.0428571 67:0.0571429 70:0.0857143 82:0.0714286 96:0.0428571 111:0.114286 113:0.0357143 128:0.0714286 137:0.0857143 140:0.0714286 160:0.0256236 171:0.1 180:0.0571429 197:0.114286 214:0.114286 234:0.171429 243:0.1 303:0.6 304:0.6 305:0.6 307:0.4 309:0.2 310:0.2 311:0.4 312:0.25 313:1 314:0.666667 315:0.5 316:0.333333 318:0.25 321:0.25 324:0.25 325:0.333333 328:0.333333 329:0.333333 330:0.333333 333:0.333333 336:0.333333 337:0.666667 343:0.333333 359:0.333333 369:0.666667 370:0.25 373:0.5 374:0.5 388:0.5 430:0.5 443:0.5 
7.524642641278214 1:0.0517241 4:0.0431034 6:0.206897 7:0.103448 8:0.103448 10:0.0935557 11:0.089822 16:0.12069 27:0.206897 31:0.103448 37:0.091954 49:0.112853 51:0.172414 52:0.0689655 55:0.103448 56:0.137931 72:0.293103 129:0.103448 143:0.103448 149:0.172414 157:0.137931 201:0.12069 252:0.517241 303:0.6 304:0.6 305:0.2 307:0.2 308:0.2 309:0.2 312:0.75 313:0.5 316:0.333333 328:0.333333 331:0.25 332:0.25 333:0.333333 354:0.25 364:0.333333 383:0.25 412:0.5 445:0.333333 
6.228817792178361 1:0.0762712 3:0.0589053 4:0.0211864 6:0.0508475 7:0.152542 8:0.152542 9:0.101695 10:0.045985 11:0.0441498 15:0.0508475 16:0.118644 17:0.101695 24:0.0677966 28:0.0966102 34:0.0508475 37:0.0451977 38:0.0833333 47:0.0677966 49:0.05547 51:0.0847458 53:0.101695 56:0.0677966 58:0.0299258 64:0.0847458 70:0.101695 77:0.0508475 102:0.118644 112:0.0677966 149:0.0847458 155:0.0204387 157:0.0677966 171:0.118644 175:0.101695 177:0.0677966 180:0.0677966 192:0.0677966 193:0.0847458 207:0.0677966 223:0.0677966 293:0.169492 301:0.101695 303:0.8 304:0.8 305:0.6 307:0.2 308:0.2 309:0.4 310:0.2 311:0.2 312:0.5 313:0.5 314:0.333333 315:0.25 316:0.333333 317:0.25 322:0.333333 324:0.25 332:0.25 334:0.333333 339:0.333333 345:0.666667 352:0.333333 354:0.25 362:0.333333 364:0.333333 377:0.5 411:0.333333 424:0.5 
2.78713744170771 1:0.0810811 2:0.0675676 3:0.0234825 6:0.0405405 7:0.0810811 8:0.0405405 9:0.202703 10:0.0733274 11:0.140802 14:0.0405405 15:0.0405405 16:0.189189 17:0.0405405 24:0.0540541 25:0.0675676 27:0.0810811 38:0.132883 49:0.0884521 53:0.243243 56:0.108108 58:0.0238598 59:0.0540541 66:0.162162 79:0.0810811 82:0.0675676 87:0.0405405 96:0.0405405 112:0.0540541 114:0.0540541 121:0.0675676 127:0.0720721 132:0.0675676 152:0.0945946 155:0.0162957 157:0.108108 160:0.0242385 191:0.117117 207:0.108108 243:0.0945946 303:0.6 304:0.8 305:0.8 307:0.6 310:0.2 312:0.25 313:0.5 314:0.666667 315:0.25 318:0.5 319:0.333333 321:0.25 324:0.25 325:0.333333 326:0.333333 327:0.333333 328:0.333333 332:0.25 334:0.333333 337:0.333333 339:0.333333 343:0.333333 358:0.333333 362:0.333333 366:0.333333 369:0.666667 377:0.5 402:0.5 415:0.5 
2.381266323355854 1:0.0535714 6:0.214286 8:0.107143 9:0.107143 10:0.193794 15:0.107143 16:0.25 18:0.0714286 37:0.0952381 38:0.175595 43:0.0669643 53:0.214286 56:0.142857 63:0.107143 64:0.178571 69:0.107143 70:0.214286 143:0.107143 147:0.178571 154:0.104545 157:0.142857 191:0.309524 197:0.285714 246:0.178571 252:0.535714 283:0.392857 303:0.2 304:0.6 305:0.4 306:0.2 309:0.2 310:0.2 311:0.2 313:0.5 315:0.5 316:0.666667 331:0.5 333:0.333333 336:0.333333 374:0.5 405:0.25 413:0.333333 
4.414451920066516 1:0.0405405 6:0.0810811 7:0.0405405 8:0.243243 9:0.162162 10:0.0366637 11:0.0352005 15:0.121622 16:0.0945946 18:0.027027 24:0.108108 31:0.0405405 32:0.0664414 37:0.108108 43:0.0506757 44:0.0477196 52:0.027027 70:0.0810811 79:0.0810811 82:0.0675676 97:0.027027 100:0.0540541 111:0.27027 113:0.0337838 141:0.0540541 143:0.0405405 154:0.0395577 180:0.0540541 191:0.117117 208:0.108108 244:0.0540541 252:0.202703 303:0.4 304:0.8 305:0.4 306:0.2 307:0.2 308:0.4 309:0.2 311:0.4 312:0.25 316:0.333333 318:0.5 321:0.25 322:0.333333 324:0.25 325:0.333333 330:0.333333 331:0.25 333:0.333333 334:0.333333 344:0.333333 347:0.25 349:0.333333 352:0.333333 358:0.333333 359:0.333333 368:0.333333 379:0.333333 382:0.666667 387:0.333333 405:0.25 413:0.333333 421:0.333333 432:0.5 433:0.5 435:0.25 438:0.333333 440:0.25 451:0.5 
4.533975789518548 1:0.0361446 3:0.0209362 4:0.0301205 6:0.0361446 7:0.0361446 8:0.0722892 9:0.108434 10:0.0653763 15:0.0722892 16:0.168675 17:0.108434 18:0.0240964 24:0.0481928 30:0.0481928 37:0.0321285 39:0.0129994 40:0.144578 43:0.0225904 44:0.0212726 48:0.0481928 50:0.0713967 52:0.0240964 56:0.0481928 67:0.0481928 77:0.0361446 79:0.0722892 81:0.0481928 85:0.0722892 98:0.108434 111:0.0481928 126:0.0843373 137:0.0722892 138:0.0481928 154:0.0352683 157:0.0481928 160:0.0216103 176:0.0722892 184:0.0662651 191:0.104418 192:0.0481928 225:0.0722892 234:0.144578 246:0.060241 281:0.120482 297:0.144578 303:0.8 304:0.6 305:0.6 306:0.2 307:0.2 308:0.2 309:0.2 310:0.4 311:0.4 312:0.75 313:0.25 315:0.25 317:0.25 318:0.5 319:0.333333 322:0.333333 324:0.25 327:0.333333 329:0.333333 330:0.333333 333:0.333333 335:0.333333 336:0.333333 337:0.666667 344:0.333333 347:0.25 350:0.333333 357:0.333333 369:0.333333 382:0.333333 390:0.25 391:0.333333 396:0.333333 430:0.5 432:0.5 
4.753250943274366 1:0.0857143 4:0.0714286 7:0.0857143 8:0.171429 9:0.0857143 10:0.0775176 15:0.0857143 16:0.2 17:0.0857143 18:0.0571429 20:0.114286 22:0.228571 28:0.162857 35:0.171429 40:0.114286 51:0.142857 58:0.0504464 85:0.171429 96:0.0857143 131:0.114286 147:0.142857 149:0.285714 154:0.0836364 156:0.228571 171:0.2 176:0.171429 191:0.247619 224:0.2 303:0.4 304:0.6 305:0.6 306:0.6 308:0.2 309:0.2 310:0.2 312:0.25 314:0.333333 319:0.333333 321:0.25 328:0.333333 331:0.25 332:0.25 336:0.333333 350:0.333333 353:0.333333 354:0.25 359:0.666667 377:0.5 
4.869642618854278 1:0.0344828 4:0.0431034 5:0.0245771 6:0.0344828 7:0.0689655 8:0.137931 10:0.0311852 11:0.0299407 15:0.0344828 16:0.0804598 17:0.172414 22:0.091954 24:0.045977 27:0.0689655 30:0.045977 32:0.0565134 33:0.0689655 35:0.0689655 37:0.0613027 39:0.0248034 40:0.091954 44:0.0202945 49:0.0376176 56:0.045977 63:0.0344828 67:0.0229885 112:0.183908 125:0.0689655 137:0.0689655 142:0.0689655 143:0.0344828 149:0.0574713 156:0.091954 157:0.045977 175:0.0689655 176:0.137931 178:0.0804598 180:0.045977 201:0.0402299 252:0.172414 281:0.114943 289:0.132184 293:0.229885 303:0.8 304:0.6 305:0.6 306:0.2 307:0.4 308:0.4 309:0.6 310:0.4 311:0.2 312:0.25 313:0.25 315:0.5 324:0.25 327:0.333333 329:0.333333 330:0.333333 331:0.25 332:0.25 333:0.666667 335:0.333333 336:0.333333 345:0.333333 346:0.25 352:0.333333 356:0.333333 358:0.333333 359:0.333333 360:0.333333 361:0.333333 362:0.333333 373:0.5 390:0.25 397:0.333333 405:0.25 430:0.5 437:0.333333 439:0.333333 441:0.5 
11.54097548003434 1:0.03125 8:0.125 11:0.108535 13:0.0833333 23:0.0625 27:0.25 28:0.11875 30:0.0833333 31:0.125 34:0.0625 37:0.111111 42:0.307292 55:0.0625 58:0.0367839 70:0.125 79:0.125 85:0.125 104:0.0833333 121:0.104167 129:0.0625 136:0.0625 143:0.0625 145:0.0729167 149:0.104167 171:0.145833 180:0.0833333 293:0.208333 304:0.4 305:0.2 307:0.4 308:0.6 309:0.4 310:0.2 313:0.25 314:0.333333 316:0.333333 318:0.25 319:0.333333 323:0.333333 326:0.333333 328:0.333333 329:0.333333 331:0.5 332:0.25 337:0.333333 340:0.25 341:0.333333 343:0.333333 345:0.333333 349:0.333333 354:0.25 367:0.5 387:0.333333 399:0.666667 412:0.5 443:0.5 
10.02859756381211 1:0.132353 3:0.051109 8:0.176471 16:0.102941 22:0.117647 23:0.0882353 24:0.117647 27:0.176471 33:0.176471 35:0.0882353 58:0.0519301 82:0.147059 104:0.117647 122:0.102941 124:0.205882 156:0.117647 170:0.117647 171:0.205882 208:0.235294 298:0.235294 303:0.2 304:0.2 305:0.2 306:0.2 307:0.6 309:0.4 314:0.333333 318:0.25 323:0.333333 326:0.333333 327:0.333333 345:0.333333 356:0.333333 360:0.333333 361:0.666667 376:0.666667 379:0.333333 405:0.25 409:0.5 420:0.5 
1.610476540617975 1:0.111111 6:0.111111 8:0.111111 11:0.192951 22:0.148148 33:0.222222 35:0.111111 50:0.219479 52:0.0740741 53:0.222222 58:0.0653935 82:0.185185 110:0.138889 156:0.148148 169:0.148148 171:0.259259 188:0.37037 208:0.296296 298:0.296296 303:0.2 304:0.4 306:0.2 309:0.4 312:0.5 313:0.25 314:0.333333 318:0.25 324:0.25 338:0.25 345:0.333333 347:0.25 354:0.25 360:0.333333 361:0.666667 376:0.333333 385:0.5 449:0.333333 
4.475597291088628 1:0.0633803 2:0.0704225 3:0.0244747 4:0.0176056 6:0.126761 7:0.126761 8:0.0422535 9:0.0422535 11:0.0366879 14:0.0422535 15:0.084507 17:0.0422535 22:0.28169 27:0.338028 32:0.0692488 33:0.169014 35:0.084507 38:0.0692488 43:0.0264085 47:0.056338 55:0.0422535 58:0.024868 68:0.028169 69:0.0422535 78:0.056338 92:0.0985915 133:0.056338 135:0.056338 136:0.084507 156:0.112676 188:0.140845 223:0.056338 239:0.084507 252:0.211268 298:0.112676 303:0.8 304:0.6 305:0.6 306:0.2 307:0.2 308:0.2 309:0.4 310:0.2 311:0.4 313:0.25 314:0.333333 316:0.666667 318:0.25 320:0.25 329:1 333:0.333333 337:0.666667 341:0.333333 343:0.333333 345:0.333333 359:0.333333 360:0.333333 361:0.333333 371:0.333333 379:0.333333 382:0.333333 390:0.25 416:0.5 418:0.333333 
28.184563287627 1:0.0384615 4:0.0320513 5:0.27413 8:0.230769 15:0.0769231 39:0.0276653 49:0.0839161 58:0.0452724 127:0.136752 134:0.102564 140:0.128205 150:0.102564 153:0.0738988 171:0.179487 174:0.102564 303:0.4 304:0.2 305:0.2 310:0.2 312:0.25 314:0.333333 327:0.333333 329:0.333333 330:0.333333 332:0.25 341:0.333333 345:0.333333 352:0.333333 356:0.333333 361:0.333333 374:0.5 376:0.333333 393:0.333333 406:0.333333 
6.750274570519459 1:0.15 4:0.125 8:0.3 11:0.260484 37:0.266667 49:0.327273 58:0.176563 86:0.3 140:0.5 171:0.7 180:0.4 303:0.2 304:0.4 309:0.2 312:0.25 314:0.333333 319:0.333333 330:0.333333 359:0.333333 
8.070155251913034 1:0.136364 8:0.272727 11:0.236804 20:0.363636 24:0.363636 37:0.242424 58:0.160511 91:0.454545 140:0.454545 171:0.636364 180:0.363636 304:0.4 306:0.2 307:0.2 309:0.2 314:0.333333 320:0.25 330:0.333333 343:0.333333 347:0.25 
18.6690711016059 1:0.15 8:0.3 11:0.260484 37:0.266667 58:0.176563 140:0.5 171:0.7 180:0.4 304:0.4 309:0.2 314:0.333333 330:0.333333 
32 4:0.138889 11:0.289427 40:0.444444 45:0.555556 303:0.2 304:0.2 310:0.2 311:0.2 349:0.333333 441:0.5 
6.379388061712302 1:0.075 3:0.144809 5:0.0356369 7:0.2 9:0.1 10:0.0452186 12:0.0655556 18:0.0666667 19:0.0333333 20:0.0666667 26:0.0666667 29:0.489583 49:0.327273 50:0.0987654 60:0.166667 63:0.05 103:0.0833333 104:0.0666667 111:0.133333 154:0.0487879 155:0.020098 170:0.0666667 189:0.233333 216:0.433333 220:0.233333 221:0.15 227:0.0833333 247:0.166667 254:0.1 303:0.6 304:0.6 306:0.6 307:0.2 308:0.2 312:0.5 314:0.333333 315:0.25 323:0.666667 324:0.25 334:0.333333 337:0.333333 393:0.333333 397:0.333333 400:0.333333 427:0.5 428:0.5 452:0.333333 
7.162078312652169 1:0.0517241 3:0.119842 5:0.0737314 6:0.103448 7:0.310345 9:0.103448 12:0.0678161 19:0.0689655 35:0.103448 43:0.0646552 50:0.204342 51:0.172414 62:0.137931 63:0.103448 85:0.206897 103:0.172414 104:0.137931 138:0.137931 148:0.103448 151:0.172414 155:0.0415822 170:0.137931 197:0.275862 203:0.241379 221:0.310345 225:0.206897 227:0.344828 254:0.206897 303:0.8 304:0.4 306:0.2 309:0.2 311:0.2 312:0.5 314:0.333333 315:0.25 319:0.333333 323:0.666667 330:0.333333 332:0.5 334:0.333333 357:0.333333 360:0.333333 396:0.333333 397:0.333333 
10.84477059084803 1:0.0294118 3:0.136291 4:0.0245098 5:0.0419257 6:0.117647 7:0.176471 8:0.117647 9:0.0588235 11:0.102151 19:0.0392157 22:0.156863 29:0.115196 30:0.235294 43:0.0367647 44:0.0346201 51:0.0980392 62:0.0784314 63:0.0588235 79:0.117647 85:0.117647 96:0.117647 103:0.0980392 104:0.0784314 110:0.0735294 135:0.0784314 138:0.0784314 155:0.0236448 164:0.107843 170:0.0784314 197:0.156863 221:0.176471 225:0.117647 227:0.0980392 254:0.117647 268:0.313725 303:1 304:0.6 306:0.4 308:0.4 311:0.4 312:0.25 314:0.333333 315:0.25 318:0.25 319:0.333333 321:0.25 323:0.666667 324:0.25 329:0.333333 330:0.333333 334:0.333333 350:0.333333 358:0.333333 370:0.25 378:0.5 394:0.333333 397:0.333333 434:0.333333 
13.80554426427803 1:0.0357143 3:0.20687 4:0.0297619 5:0.0509098 7:0.214286 8:0.0714286 10:0.32299 11:0.06202 19:0.047619 40:0.0952381 56:0.0952381 60:0.119048 63:0.0714286 66:0.0952381 88:0.238095 102:0.166667 103:0.119048 104:0.0952381 110:0.0892857 135:0.0952381 155:0.0287115 157:0.0952381 164:0.130952 170:0.0952381 181:0.190476 185:0.380952 221:0.214286 284:0.119048 303:0.8 304:0.6 306:0.2 310:0.2 313:0.25 314:0.333333 315:0.5 320:0.25 322:0.333333 323:0.666667 324:0.25 329:0.333333 343:0.333333 351:0.333333 355:0.333333 370:0.25 408:0.333333 439:0.333333 451:0.5 
2.978607269879093 1:0.09375 3:0.217213 5:0.133638 7:0.1875 10:0.339139 56:0.25 63:0.1875 75:0.25 103:0.3125 104:0.25 127:0.333333 135:0.25 155:0.0753676 157:0.25 170:0.25 221:0.5625 303:0.6 304:0.2 313:0.25 315:0.25 317:0.25 323:0.666667 327:0.333333 329:0.333333 351:0.333333 397:0.333333 
28.41092116657936 5:0.106911 6:0.225 7:0.15 10:0.0678279 11:0.065121 19:0.05 20:0.2 30:0.1 48:0.05 57:0.15 62:0.1 63:0.075 69:0.075 75:0.1 103:0.25 128:0.125 141:0.1 144:0.175 169:0.1 227:0.125 248:0.125 254:0.15 303:0.6 304:0.4 306:0.4 308:0.2 312:0.25 313:0.25 314:0.333333 315:0.25 316:0.333333 317:0.25 323:0.333333 328:0.333333 330:0.333333 331:0.25 334:0.333333 342:0.333333 366:0.333333 372:0.5 384:0.333333 397:0.333333 427:0.5 
3.88263631849718 1:0.075 2:0.0833333 3:0.0579235 5:0.0712737 6:0.2 7:0.05 8:0.05 9:0.2 10:0.0904372 11:0.043414 15:0.05 19:0.0666667 20:0.0666667 22:0.133333 30:0.0666667 35:0.05 56:0.0666667 62:0.133333 63:0.05 70:0.1 91:0.0833333 92:0.0583333 93:0.0833333 96:0.05 103:0.166667 104:0.0666667 116:0.0833333 141:0.0666667 155:0.020098 156:0.0666667 157:0.0666667 160:0.0298942 169:0.0666667 170:0.0666667 188:0.166667 215:0.166667 221:0.15 243:0.116667 246:0.0833333 303:0.8 304:0.8 305:0.2 306:0.6 308:0.2 309:0.2 313:0.25 314:0.333333 315:0.25 316:0.333333 320:0.5 321:0.5 323:0.666667 325:0.333333 330:0.333333 334:0.333333 335:0.333333 337:0.333333 342:0.333333 356:0.333333 363:0.333333 367:0.5 377:0.5 380:0.333333 437:0.333333 449:0.333333 
0.8111637110382858 1:0.046875 3:0.0543033 4:0.0390625 5:0.0668191 6:0.09375 7:0.1875 8:0.09375 19:0.0625 22:0.375 32:0.153646 35:0.09375 43:0.0585938 62:0.125 63:0.09375 103:0.15625 104:0.125 155:0.0376838 156:0.125 170:0.125 221:0.28125 227:0.15625 254:0.1875 303:1 304:0.2 306:0.4 308:0.2 309:0.2 311:0.2 314:0.333333 315:0.25 323:0.666667 334:0.333333 347:0.25 349:0.333333 355:0.333333 371:0.333333 372:0.5 397:0.333333 431:0.333333 
2.937501843574761 1:0.0865385 3:0.167087 5:0.0822389 6:0.0576923 7:0.173077 9:0.115385 10:0.0521753 12:0.075641 18:0.0769231 19:0.0384615 20:0.0769231 26:0.0769231 29:0.225962 43:0.0360577 49:0.188811 50:0.11396 51:0.0961538 60:0.0961538 63:0.115385 85:0.115385 104:0.153846 111:0.0769231 138:0.0769231 151:0.0961538 154:0.0562937 155:0.0463801 170:0.153846 189:0.134615 197:0.153846 216:0.25 220:0.134615 221:0.346154 225:0.115385 247:0.0961538 303:0.8 304:0.6 306:0.6 307:0.2 308:0.2 311:0.2 312:0.75 314:0.333333 315:0.25 319:0.333333 323:0.333333 324:0.25 330:0.333333 332:0.25 337:0.333333 357:0.333333 393:0.333333 396:0.333333 400:0.333333 427:0.5 428:0.5 452:0.333333 
9.11874998109284 1:0.0789474 3:0.182916 5:0.225075 7:0.157895 10:0.285591 48:0.105263 56:0.210526 62:0.210526 63:0.157895 104:0.210526 127:0.280702 135:0.210526 151:0.263158 155:0.0634675 157:0.210526 170:0.210526 221:0.473684 303:0.6 304:0.2 312:0.25 313:0.25 314:0.333333 315:0.25 323:0.333333 327:0.333333 329:0.333333 332:0.25 351:0.333333 408:0.333333 
9.596107997057363 1:0.0508475 2:0.0847458 3:0.0589053 5:0.108723 6:0.152542 7:0.101695 8:0.101695 9:0.152542 10:0.137955 15:0.0508475 19:0.0338983 20:0.0677966 22:0.135593 30:0.135593 35:0.0508475 40:0.0677966 43:0.0317797 51:0.0847458 56:0.0677966 62:0.0677966 63:0.0508475 70:0.101695 75:0.0677966 85:0.101695 92:0.059322 96:0.0508475 104:0.0677966 110:0.0635593 116:0.0423729 120:0.101695 138:0.0677966 141:0.0677966 155:0.0204387 156:0.0677966 157:0.0677966 170:0.0677966 177:0.0677966 215:0.169492 221:0.152542 225:0.101695 243:0.118644 246:0.0847458 270:0.220339 288:0.0677966 302:0.0677966 303:0.8 304:0.6 305:0.2 306:0.6 308:0.2 309:0.2 310:0.2 311:0.2 312:0.25 313:0.25 314:0.333333 315:0.25 316:0.333333 317:0.25 319:0.333333 320:0.25 321:0.25 323:0.333333 324:0.25 325:0.333333 326:0.333333 330:0.666667 334:0.333333 335:0.333333 350:0.333333 351:0.333333 353:0.333333 363:0.333333 367:0.5 377:0.5 378:0.5 380:0.333333 394:0.333333 437:0.333333 449:0.333333 
23.32294566074855 1:0.09375 3:0.217213 10:0.339139 11:0.162802 16:0.21875 18:0.25 20:0.25 38:0.307292 77:0.1875 104:0.25 154:0.365909 163:0.28125 170:0.25 207:0.25 303:0.2 304:0.4 305:0.2 306:0.4 310:0.2 317:0.25 323:0.333333 357:0.333333 
26.43937791073133 3:0.0789866 4:0.0568182 6:0.136364 8:0.136364 14:0.136364 16:0.159091 21:0.204545 38:0.223485 39:0.0490431 54:0.121212 66:0.181818 73:0.181818 91:0.227273 111:0.181818 143:0.136364 201:0.159091 207:0.181818 238:0.454545 265:0.181818 303:0.6 304:0.2 305:0.4 306:0.2 310:0.4 313:0.25 315:0.25 317:0.25 320:0.25 324:0.25 331:0.25 343:0.333333 344:0.333333 349:0.333333 360:0.333333 362:0.333333 
2.203622429159582 1:0.0882353 6:0.352941 8:0.0882353 9:0.0882353 16:0.205882 17:0.0882353 19:0.176471 24:0.117647 38:0.289216 58:0.0519301 81:0.235294 87:0.0882353 136:0.0882353 138:0.117647 143:0.176471 150:0.117647 201:0.205882 202:0.205882 207:0.235294 252:0.441176 260:0.588235 273:0.29638 303:0.2 304:0.4 305:0.4 306:0.2 307:0.2 310:0.2 314:0.333333 318:0.25 319:0.333333 329:0.333333 330:0.333333 331:0.25 332:0.25 333:0.333333 347:0.25 355:0.333333 369:0.333333 395:0.5 434:0.333333 
5.805931485698443 1:0.0882353 3:0.102218 6:0.352941 7:0.176471 8:0.176471 11:0.0766129 16:0.205882 19:0.117647 38:0.289216 44:0.10386 81:0.176471 82:0.147059 111:0.117647 135:0.117647 143:0.176471 169:0.117647 177:0.117647 201:0.205882 207:0.235294 208:0.235294 220:0.205882 252:0.882353 260:0.588235 273:0.29638 303:0.6 304:0.4 305:0.2 306:0.2 310:0.2 311:0.2 318:0.5 324:0.25 329:0.333333 331:0.25 333:0.333333 355:0.333333 426:0.333333 444:0.5 
6.273820451215821 6:0.3 10:0.271311 11:0.130242 12:0.0983333 18:0.1 19:0.2 56:0.2 66:0.4 81:0.1 84:0.15 85:0.6 143:0.15 154:0.146364 157:0.2 169:0.2 202:0.35 218:0.35 272:1 273:0.503846 303:0.2 304:0.6 306:0.4 313:0.25 315:0.25 318:0.25 319:0.666667 331:0.25 422:0.333333 
9.255186973880555 3:0.182916 6:0.157895 7:0.157895 10:0.142796 11:0.137097 18:0.105263 19:0.210526 47:0.210526 49:0.344498 126:0.368421 149:0.263158 154:0.154067 155:0.0634675 163:0.236842 202:0.368421 212:0.315789 218:0.368421 247:0.263158 303:0.6 304:0.4 306:0.4 311:0.2 312:0.25 327:0.333333 332:0.25 345:0.333333 362:0.333333 363:0.333333 379:0.333333 389:0.5 
7.151043692584911 3:0.0827479 6:0.285714 8:0.142857 11:0.12404 22:0.380952 32:0.234127 34:0.142857 35:0.285714 44:0.0840774 65:0.238095 68:0.0952381 122:0.333333 156:0.380952 249:0.190476 302:0.190476 303:0.4 304:0.4 306:0.2 308:0.2 309:0.4 311:0.2 315:0.25 316:0.333333 326:0.333333 349:0.333333 403:0.5 417:0.333333 
9.264641512948241 1:0.09375 3:0.32582 6:0.1875 11:0.162802 22:0.25 35:0.375 36:0.1875 82:0.3125 110:0.234375 156:0.25 163:0.28125 268:1 303:0.4 304:0.2 306:0.2 309:0.4 318:0.25 324:0.25 349:0.333333 350:0.333333 403:0.5 
4.6561074696723 1:0.136364 3:0.23696 6:0.136364 22:0.181818 35:0.272727 36:0.136364 52:0.181818 54:0.242424 82:0.454545 110:0.170455 156:0.181818 263:0.636364 303:0.4 306:0.2 309:0.4 312:0.25 313:0.25 318:0.25 324:0.25 349:0.333333 382:0.333333 403:0.5 
1.910142113371271 1:0.0882353 3:0.102218 4:0.0735294 7:0.176471 10:0.159595 18:0.117647 19:0.235294 20:0.235294 62:0.235294 77:0.176471 138:0.235294 154:0.172193 202:0.411765 218:0.411765 303:0.6 304:0.2 306:0.6 314:0.333333 317:0.25 330:0.333333 334:0.333333 380:0.333333 433:0.5 
1.618967842612733 1:0.157895 3:0.0914582 6:0.315789 7:0.157895 9:0.157895 10:0.142796 18:0.105263 37:0.140351 77:0.157895 81:0.315789 154:0.154067 160:0.0944027 177:0.210526 192:0.210526 303:0.6 304:0.4 306:0.2 309:0.2 317:0.25 318:0.25 333:0.333333 336:0.333333 372:0.5 391:0.333333 403:0.5 
27.37624016906168 1:0.09375 3:0.217213 6:0.1875 8:0.1875 10:0.16957 18:0.125 20:0.25 33:0.375 37:0.333333 68:0.125 77:0.1875 92:0.21875 154:0.182955 219:0.5 303:0.4 304:0.4 306:0.4 309:0.4 316:0.333333 317:0.25 320:0.25 372:0.5 
17.02683422546415 1:0.1875 5:0.267276 7:0.125 8:0.125 10:0.226093 12:0.0819444 20:0.166667 56:0.333333 77:0.125 81:0.0833333 99:0.125 157:0.333333 303:0.4 304:0.6 306:0.2 313:0.25 317:0.25 318:0.25 322:0.333333 339:0.333333 350:0.333333 357:0.333333 
0.8763998802484389 1:0.219512 4:0.0609756 6:0.0731707 7:0.0731707 8:0.0731707 9:0.146341 15:0.0731707 17:0.146341 21:0.109756 31:0.0731707 45:0.243902 47:0.195122 51:0.365854 58:0.043064 77:0.146341 114:0.097561 125:0.146341 159:0.0464576 160:0.0437476 178:0.170732 192:0.195122 255:0.170732 269:0.243902 303:0.6 304:0.4 305:0.4 306:0.2 308:0.2 311:0.4 312:0.25 314:0.333333 317:0.25 325:0.333333 327:0.333333 336:0.333333 354:0.25 356:0.333333 357:0.333333 359:0.333333 361:0.333333 364:0.333333 366:0.333333 373:0.5 386:0.333333 411:0.333333 445:0.333333 
6.711293324214113 1:0.0315789 2:0.0526316 3:0.10975 6:0.126316 7:0.284211 8:0.0947368 11:0.0548387 12:0.0414035 13:0.0421053 19:0.0210526 30:0.0421053 34:0.0315789 45:0.0526316 47:0.168421 49:0.172249 62:0.0421053 77:0.0315789 78:0.0421053 90:0.0280702 103:0.0526316 106:0.0631579 111:0.0421053 125:0.0631579 128:0.105263 136:0.0315789 163:0.0473684 178:0.0736842 212:0.252632 220:0.0736842 269:0.105263 303:0.6 304:0.6 305:0.2 306:0.2 308:0.2 309:0.2 311:0.4 312:0.25 314:0.333333 317:0.25 318:0.25 320:0.25 323:0.666667 324:0.25 327:0.333333 328:0.333333 329:0.333333 333:0.333333 334:0.333333 337:0.333333 343:0.666667 347:0.25 351:0.666667 355:0.333333 403:0.5 428:0.5 452:0.333333 
6.001535365592671 1:0.0238095 3:0.0827479 4:0.0396825 7:0.047619 8:0.047619 9:0.0952381 20:0.126984 23:0.047619 27:0.0952381 39:0.0171261 40:0.126984 45:0.15873 47:0.126984 52:0.031746 53:0.0952381 54:0.126984 63:0.047619 104:0.0634921 109:0.111111 124:0.111111 135:0.126984 137:0.190476 155:0.019141 170:0.0634921 222:0.285714 263:0.111111 303:0.6 304:0.4 306:0.2 307:0.4 310:0.4 311:0.4 312:0.25 313:0.5 315:0.25 323:0.333333 324:0.25 327:0.333333 329:0.666667 333:0.333333 334:0.333333 346:0.25 347:0.25 349:0.333333 355:0.333333 361:0.333333 369:0.333333 374:0.5 375:0.5 408:0.666667 426:0.333333 
8.16804505430474 3:0.056055 6:0.145161 7:0.193548 8:0.0483871 9:0.0483871 13:0.0645161 19:0.0322581 20:0.0645161 23:0.0967742 26:0.258065 28:0.0919355 30:0.0645161 54:0.172043 62:0.0645161 81:0.0967742 95:0.0806452 103:0.0806452 118:0.0322581 128:0.0806452 135:0.0645161 137:0.193548 138:0.0645161 177:0.0645161 215:0.16129 248:0.0806452 303:0.6 304:0.4 305:0.2 306:0.4 307:0.4 308:0.4 313:0.25 314:0.333333 318:0.25 321:0.25 323:0.333333 326:0.333333 328:0.333333 329:0.666667 330:0.333333 334:0.333333 356:0.333333 361:0.333333 369:0.333333 391:0.333333 402:0.5 403:0.5 411:0.333333 414:0.5 415:0.5 436:0.5 
15.2898476565557 1:0.0535714 7:0.107143 15:0.107143 29:0.209821 30:0.285714 32:0.175595 33:0.214286 40:0.142857 49:0.116883 54:0.0952381 95:0.178571 126:0.25 132:0.178571 184:0.196429 303:0.2 305:0.2 308:0.6 309:0.2 310:0.2 312:0.25 313:0.25 321:0.25 327:0.333333 328:0.333333 347:0.25 355:0.333333 356:0.333333 369:0.333333 399:0.333333 406:0.333333 407:0.333333 415:0.5 418:0.333333 421:0.333333 426:0.333333 
4.80652264658627 1:0.0535714 6:0.107143 8:0.107143 9:0.107143 11:0.09303 22:0.142857 24:0.142857 28:0.203571 35:0.107143 37:0.0952381 43:0.0669643 44:0.063058 45:0.178571 81:0.0714286 114:0.142857 125:0.214286 138:0.142857 156:0.142857 180:0.142857 269:0.357143 303:0.2 304:0.6 306:0.2 307:0.2 308:0.2 309:0.4 311:0.6 318:0.25 325:0.333333 327:0.333333 330:0.333333 341:0.333333 347:0.25 369:0.333333 378:0.5 406:0.333333 
32 6:0.176471 9:0.176471 24:0.235294 28:0.670588 64:0.294118 97:0.117647 111:0.235294 118:0.117647 303:0.2 304:0.2 307:0.2 308:0.2 315:0.25 321:0.25 324:0.25 326:0.333333 347:0.25 371:0.333333 383:0.25 419:0.333333 432:0.5 
2.523273037227738 2:0.0205761 3:0.0572084 4:0.0565844 5:0.105591 6:0.0740741 7:0.0740741 8:0.037037 9:0.037037 10:0.0669905 11:0.0107195 12:0.00809328 13:0.0329218 14:0.037037 15:0.0123457 17:0.0246914 18:0.0164609 19:0.0164609 21:0.12963 22:0.0658436 24:0.0164609 25:0.0205761 28:0.117284 30:0.0164609 31:0.0493827 35:0.0617284 38:0.121399 39:0.0133203 43:0.00771605 47:0.0164609 49:0.026936 50:0.0243865 55:0.0123457 56:0.0329218 59:0.0164609 70:0.0246914 81:0.00823045 83:0.0658436 85:0.0246914 99:0.0123457 101:0.0205761 111:0.0164609 118:0.0164609 119:0.0205761 129:0.0123457 138:0.0164609 148:0.037037 153:0.041511 154:0.0240928 155:0.00496248 156:0.0329218 157:0.0329218 158:0.0329218 159:0.0156771 162:0.00738128 168:0.0576132 173:0.0864198 177:0.0164609 183:0.0288066 188:0.0411523 197:0.0329218 203:0.0864198 218:0.0288066 239:0.0246914 247:0.0205761 266:0.0658436 283:0.090535 291:0.0360082 303:1 304:1 305:0.8 306:0.8 307:0.4 308:0.6 309:0.2 310:0.4 311:0.4 312:0.5 313:0.5 314:0.333333 316:0.333333 318:0.25 319:0.666667 322:0.666667 324:0.25 326:0.666667 328:0.333333 330:0.333333 332:0.25 333:0.333333 334:0.666667 336:0.333333 338:0.25 341:0.333333 343:0.333333 344:0.333333 345:0.333333 346:0.25 347:0.25 349:1 353:0.333333 354:0.25 355:0.333333 359:0.333333 360:0.666667 365:0.333333 366:0.666667 368:0.333333 370:0.25 375:1 377:0.5 382:0.333333 384:0.333333 387:0.333333 391:0.333333 392:0.333333 393:0.333333 394:0.333333 398:0.5 399:0.333333 400:0.333333 408:0.666667 413:0.333333 416:0.5 419:0.333333 432:0.5 436:0.5 450:0.5 
4.192664865067872 1:0.0491803 2:0.0819672 3:0.113948 6:0.245902 7:0.0983607 8:0.196721 9:0.0491803 12:0.0644809 14:0.0491803 16:0.057377 17:0.0983607 20:0.0655738 24:0.0655738 28:0.0934426 31:0.0491803 32:0.0806011 49:0.0536513 51:0.0819672 53:0.0983607 55:0.0491803 63:0.0491803 78:0.0655738 91:0.0819672 96:0.0491803 125:0.0983607 178:0.114754 216:0.213115 224:0.114754 239:0.0983607 249:0.0655738 261:0.114754 271:0.114754 289:0.188525 303:0.6 304:0.6 305:0.6 306:0.2 307:0.2 308:0.6 312:0.5 313:0.5 315:0.25 318:0.25 320:0.25 321:0.25 327:0.333333 333:0.333333 334:0.333333 337:0.333333 343:0.333333 347:0.25 349:0.333333 378:0.5 379:0.333333 382:0.333333 388:0.5 398:0.5 426:0.333333 
4.668758571791992 1:0.0458015 3:0.0265298 4:0.00954198 6:0.0916031 7:0.137405 9:0.0687023 11:0.0397685 12:0.0300254 13:0.0305344 15:0.0229008 19:0.0152672 22:0.0305344 23:0.0687023 26:0.0305344 29:0.179389 32:0.0750636 35:0.0229008 38:0.0375318 39:0.00823624 42:0.0375318 46:0.0381679 50:0.0452361 62:0.0305344 64:0.0381679 72:0.129771 76:0.0305344 77:0.0458015 81:0.0152672 90:0.0814249 99:0.0229008 103:0.0381679 104:0.0305344 113:0.019084 126:0.0534351 143:0.0229008 152:0.10687 156:0.0305344 169:0.0305344 170:0.0305344 192:0.0610687 201:0.0267176 205:0.0381679 235:0.229008 292:0.240458 303:0.8 304:0.6 305:0.4 306:0.4 307:0.4 308:0.4 309:0.2 310:0.6 311:0.2 312:0.25 314:0.333333 315:0.25 316:0.333333 317:0.5 318:0.25 320:0.25 322:0.333333 323:0.666667 325:0.333333 327:0.333333 331:0.25 332:0.25 333:0.333333 334:0.333333 335:0.333333 336:0.333333 342:0.333333 350:0.333333 357:0.333333 360:0.333333 363:0.333333 365:0.333333 375:0.5 377:0.5 380:0.333333 386:0.333333 392:0.333333 399:0.333333 403:0.5 407:0.333333 409:0.5 416:0.5 419:0.333333 420:0.5 433:0.5 437:0.333333 448:1 
6.393468971458955 1:0.09375 2:0.208333 4:0.0260417 5:0.0445461 8:0.1875 9:0.125 12:0.122917 15:0.1875 16:0.0729167 17:0.0625 27:0.125 34:0.0625 38:0.204861 42:0.204861 43:0.0390625 49:0.0681818 76:0.166667 77:0.0625 78:0.0833333 109:0.145833 128:0.104167 132:0.104167 192:0.0833333 205:0.208333 303:0.4 304:0.6 305:0.6 307:0.2 309:0.2 310:0.4 311:0.2 312:0.25 317:0.5 318:0.25 324:0.25 328:0.666667 334:0.333333 337:0.333333 353:0.333333 357:0.333333 366:0.333333 368:0.333333 372:0.5 373:0.5 375:0.5 377:0.5 399:0.333333 415:0.5 419:0.333333 444:0.5 
0.3600636616032842 1:0.3 3:0.17377 10:0.271311 18:0.2 20:0.4 70:0.6 77:0.3 154:0.292727 303:0.2 304:0.2 306:0.4 316:0.333333 317:0.25 
10.8443918141842 1:0.166667 4:0.138889 10:0.301457 14:0.333333 18:0.222222 20:0.444444 21:0.5 43:0.208333 154:0.325253 168:0.777778 173:0.777778 303:0.2 304:0.2 305:0.2 306:0.6 311:0.2 
22.24906464770254 1:0.09375 3:0.108607 4:0.078125 7:0.1875 51:0.3125 54:0.166667 73:0.25 82:0.3125 91:0.3125 97:0.125 265:0.25 303:0.6 312:0.25 313:0.25 317:0.25 318:0.25 320:0.25 321:0.25 333:0.333333 367:0.5 385:0.5 428:0.5 
10.3979614614292 1:0.0428571 2:0.0714286 3:0.148946 4:0.0535714 6:0.128571 7:0.0857143 8:0.0428571 9:0.0857143 12:0.0280952 16:0.05 28:0.162857 39:0.0154135 43:0.0267857 44:0.0252232 50:0.0846561 53:0.428571 54:0.0761905 58:0.0252232 70:0.0857143 73:0.114286 78:0.0571429 95:0.285714 106:0.0857143 115:0.0714286 122:0.1 147:0.0714286 155:0.0344538 187:0.1 265:0.0571429 271:0.1 303:0.8 304:0.6 305:0.2 308:0.2 310:0.2 311:0.4 312:0.25 313:0.5 314:0.333333 316:0.333333 317:0.25 318:0.25 321:0.25 323:0.333333 325:0.333333 326:0.333333 331:0.25 360:0.333333 377:1 381:0.333333 387:0.333333 438:0.333333 446:0.5 
15.31321611216337 1:0.0192308 3:0.13367 4:0.0160256 6:0.0769231 7:0.192308 11:0.0333954 14:0.0384615 15:0.0384615 28:0.146154 33:0.153846 34:0.0384615 43:0.0240385 51:0.0641026 52:0.025641 54:0.0683761 59:0.0512821 73:0.102564 83:0.0512821 94:0.0641026 115:0.0641026 116:0.0320513 122:0.0448718 163:0.0576923 187:0.0897436 193:0.0641026 200:0.102564 219:0.205128 223:0.0512821 303:0.8 304:0.2 305:0.4 308:0.2 309:0.4 311:0.2 312:0.5 313:0.25 314:0.333333 317:0.25 319:0.333333 321:0.25 325:0.666667 326:0.333333 337:0.333333 339:0.333333 353:0.333333 371:0.333333 372:0.5 381:0.333333 391:0.333333 393:0.333333 405:0.25 407:0.333333 430:0.5 435:0.25 
7.815092693044073 1:0.0882353 5:0.0419257 6:0.117647 7:0.0588235 8:0.0588235 9:0.0588235 12:0.0385621 13:0.235294 19:0.0392157 20:0.0784314 21:0.0882353 22:0.235294 25:0.0980392 28:0.111765 29:0.115196 32:0.0964052 33:0.117647 34:0.0588235 35:0.176471 36:0.0588235 40:0.156863 42:0.0964052 51:0.0980392 53:0.117647 55:0.0588235 57:0.117647 63:0.0588235 75:0.0784314 76:0.0784314 92:0.0686275 95:0.0980392 123:0.112745 155:0.0236448 157:0.156863 163:0.0882353 165:0.117647 169:0.0784314 198:0.117647 203:0.137255 206:0.156863 266:0.156863 303:0.6 304:0.6 305:0.2 306:0.8 307:0.2 308:0.6 309:0.8 310:0.4 312:0.25 313:0.75 315:0.25 317:0.5 320:0.25 321:0.25 327:0.333333 348:0.333333 355:0.333333 371:0.333333 375:0.5 376:0.333333 407:0.333333 411:0.333333 
2.098160405046767 1:0.15 5:0.106911 6:0.15 7:0.075 9:0.075 12:0.0491667 13:0.1 20:0.2 22:0.2 25:0.125 26:0.1 27:0.15 28:0.1425 32:0.122917 40:0.2 53:0.15 55:0.075 63:0.225 75:0.1 76:0.2 86:0.075 106:0.3 141:0.1 157:0.2 163:0.1125 198:0.3 203:0.175 224:0.175 293:0.25 300:0.125 303:0.6 304:0.4 305:0.2 306:0.4 307:0.6 308:0.4 310:0.2 313:0.5 315:0.25 317:0.5 319:0.333333 323:0.333333 330:0.333333 341:0.333333 347:0.25 371:0.333333 402:0.5 411:0.333333 429:0.5 440:0.25 
4.587864939943302 1:0.0903614 3:0.0209362 4:0.0301205 5:0.103046 7:0.0722892 8:0.0361446 9:0.0722892 16:0.0421687 20:0.144578 22:0.144578 24:0.0481928 26:0.0963855 28:0.0686747 30:0.0481928 32:0.0592369 33:0.144578 39:0.0129994 40:0.144578 42:0.0592369 44:0.0212726 50:0.142793 60:0.120482 62:0.192771 63:0.0722892 65:0.180723 67:0.0481928 75:0.0481928 76:0.0963855 79:0.0722892 87:0.0361446 94:0.060241 106:0.0722892 116:0.0301205 141:0.0481928 143:0.0722892 157:0.144578 160:0.0216103 181:0.0481928 198:0.144578 203:0.0843373 206:0.0963855 224:0.0843373 233:0.060241 303:0.8 304:0.4 305:0.2 306:0.4 307:0.4 308:0.6 309:0.2 310:0.6 311:0.2 312:0.25 314:0.666667 315:0.75 317:0.5 318:0.25 319:0.333333 321:0.25 323:0.333333 325:0.333333 330:0.333333 331:0.25 333:0.333333 335:0.333333 339:0.333333 344:0.666667 350:0.333333 355:0.333333 357:0.333333 360:0.333333 364:0.333333 371:0.333333 393:0.333333 398:0.5 419:0.333333 
4.139116524278166 1:0.09375 3:0.0434426 4:0.015625 5:0.106911 6:0.15 7:0.0375 8:0.1125 9:0.1125 17:0.0375 19:0.025 20:0.05 22:0.15 24:0.05 26:0.05 32:0.0614583 33:0.075 40:0.15 42:0.0614583 56:0.05 57:0.075 60:0.0625 62:0.05 63:0.075 65:0.0625 67:0.075 75:0.15 76:0.05 77:0.075 78:0.05 80:0.0875 85:0.15 94:0.0625 103:0.0625 106:0.075 128:0.0625 143:0.0375 157:0.15 160:0.0224206 162:0.0448413 181:0.05 198:0.075 203:0.0875 232:0.125 233:0.0625 303:1 304:0.4 305:0.2 306:0.6 307:0.4 308:0.2 309:0.2 310:0.4 313:0.5 314:0.666667 315:0.75 317:0.75 318:0.5 319:0.333333 321:0.25 323:0.666667 328:0.333333 331:0.25 333:0.333333 347:0.25 349:0.333333 350:0.333333 355:0.333333 362:0.333333 371:0.333333 402:1 411:0.333333 429:0.5 
5.844896078108075 1:0.0642857 3:0.0248244 4:0.0178571 5:0.0305459 6:0.171429 8:0.128571 9:0.128571 14:0.0428571 20:0.0571429 26:0.0571429 27:0.0857143 29:0.0839286 31:0.0428571 32:0.0702381 33:0.0857143 41:0.171429 45:0.0714286 49:0.0467532 51:0.0714286 56:0.114286 57:0.171429 60:0.142857 61:0.0571429 63:0.0428571 76:0.0571429 78:0.0571429 94:0.0714286 95:0.0714286 102:0.1 121:0.0714286 125:0.171429 126:0.1 150:0.0571429 158:0.0571429 203:0.1 204:0.114286 232:0.142857 239:0.0857143 247:0.0714286 273:0.143956 289:0.164286 303:0.8 304:0.4 305:0.2 306:0.2 307:0.4 308:0.6 309:0.2 310:0.2 311:0.2 312:0.5 313:0.5 314:0.666667 315:0.25 317:0.25 318:0.25 321:0.5 322:0.333333 326:0.333333 327:0.666667 332:0.25 333:0.333333 334:0.666667 337:0.333333 341:0.666667 345:0.333333 347:0.25 357:0.333333 363:0.333333 370:0.25 389:0.5 403:0.5 429:0.5 445:0.333333 448:0.333333 
3.705034864436611 1:0.0517241 4:0.0862069 5:0.0737314 6:0.103448 7:0.103448 9:0.103448 13:0.137931 35:0.103448 39:0.0372051 42:0.16954 45:0.172414 52:0.0689655 53:0.206897 55:0.103448 57:0.206897 63:0.103448 95:0.172414 96:0.103448 109:0.241379 134:0.137931 146:0.137931 163:0.155172 166:0.137931 227:0.172414 303:0.8 304:0.2 305:0.2 309:0.2 310:0.4 311:0.2 312:0.25 313:0.75 315:0.25 321:0.5 324:0.25 329:0.333333 331:0.25 346:0.25 384:0.333333 387:0.333333 410:0.333333 
7.492184144877973 1:0.0762712 3:0.0589053 4:0.0211864 5:0.108723 6:0.152542 7:0.0508475 8:0.101695 9:0.0508475 10:0.09197 13:0.0677966 15:0.0508475 17:0.0508475 20:0.0677966 21:0.0762712 23:0.0508475 26:0.0677966 28:0.0966102 32:0.0833333 33:0.101695 53:0.101695 55:0.0508475 57:0.101695 63:0.101695 74:0.101695 84:0.0508475 95:0.0847458 109:0.118644 123:0.0974576 126:0.118644 129:0.0508475 132:0.0847458 152:0.059322 153:0.0244242 154:0.0496148 163:0.0762712 164:0.0932203 171:0.118644 174:0.0677966 175:0.101695 203:0.118644 224:0.118644 239:0.101695 283:0.186441 287:0.118644 303:1 304:0.6 305:0.6 306:0.4 307:0.4 308:0.4 309:0.2 313:0.75 315:0.25 317:0.25 319:0.333333 321:0.25 324:0.25 327:0.666667 328:0.666667 332:0.25 341:0.333333 346:0.25 347:0.25 348:0.333333 362:0.333333 387:0.333333 415:0.5 433:0.5 441:0.5 
3.505480990439299 1:0.0810811 2:0.0675676 3:0.0234825 4:0.0168919 5:0.0288947 6:0.0810811 8:0.202703 9:0.162162 10:0.0366637 13:0.108108 14:0.0405405 20:0.0540541 26:0.0540541 28:0.154054 32:0.0664414 33:0.243243 34:0.0405405 39:0.0145804 55:0.0810811 57:0.162162 59:0.0540541 63:0.162162 70:0.0810811 76:0.0540541 77:0.121622 78:0.0540541 86:0.0405405 103:0.135135 123:0.0777027 124:0.0945946 125:0.0810811 128:0.0675676 129:0.0405405 136:0.0405405 139:0.036036 140:0.0675676 153:0.0194733 158:0.0540541 163:0.121622 186:0.0810811 206:0.108108 224:0.189189 232:0.135135 241:0.0810811 252:0.202703 283:0.148649 303:0.8 304:0.6 305:0.4 306:0.2 307:0.2 308:0.4 309:0.4 310:0.2 313:0.5 314:0.333333 315:0.25 316:0.333333 317:0.5 318:0.25 319:0.333333 323:0.333333 327:1 328:0.666667 329:0.333333 330:0.666667 336:0.333333 344:0.333333 347:0.25 348:0.333333 349:0.333333 355:0.333333 367:0.5 372:0.5 382:0.333333 402:0.5 403:0.5 
8.636489234211703 1:0.0535714 4:0.0892857 5:0.0763647 8:0.107143 13:0.285714 20:0.142857 28:0.203571 33:0.214286 36:0.107143 41:0.142857 51:0.178571 52:0.0714286 55:0.107143 63:0.214286 84:0.107143 95:0.178571 96:0.107143 126:0.25 155:0.0430672 163:0.160714 204:0.285714 206:0.285714 227:0.178571 300:0.178571 303:0.4 304:0.2 305:0.2 306:0.2 308:0.2 309:0.4 310:0.2 312:0.5 313:0.25 315:0.25 319:0.333333 321:0.5 327:0.333333 337:0.333333 346:0.25 347:0.25 357:0.333333 389:0.5 397:0.333333 
5.43397200542992 1:0.0405405 4:0.0337838 5:0.173368 6:0.0405405 8:0.162162 9:0.0405405 13:0.0540541 20:0.162162 25:0.0675676 26:0.108108 29:0.158784 35:0.0405405 36:0.0405405 41:0.108108 42:0.0664414 52:0.027027 56:0.27027 63:0.0810811 70:0.0810811 76:0.0540541 87:0.0405405 94:0.0675676 95:0.202703 96:0.0405405 126:0.0945946 150:0.0540541 155:0.0162957 198:0.0810811 206:0.108108 222:0.243243 227:0.0675676 239:0.0810811 242:0.162162 272:0.405405 303:0.6 304:0.4 305:0.2 306:0.2 307:0.4 308:0.2 309:0.4 310:0.4 312:0.25 313:0.25 315:0.25 316:0.333333 317:0.25 319:0.333333 321:0.75 327:0.333333 332:0.25 339:0.333333 343:0.666667 347:0.25 348:0.333333 349:0.333333 362:0.333333 364:0.333333 372:0.5 385:0.5 389:0.5 390:0.25 392:0.333333 399:0.333333 412:0.5 414:0.5 422:0.333333 426:0.333333 436:0.5 447:0.666667 450:0.5 
7.071037470230369 1:0.0361446 3:0.0209362 4:0.0150602 5:0.0515232 6:0.0361446 7:0.0722892 8:0.108434 10:0.0980644 13:0.0963855 15:0.0361446 20:0.0963855 24:0.0481928 26:0.0481928 29:0.0707831 30:0.144578 31:0.0361446 36:0.0361446 41:0.0481928 42:0.0592369 55:0.0361446 56:0.0481928 60:0.120482 63:0.144578 70:0.0722892 79:0.0722892 80:0.0843373 89:0.144578 95:0.060241 96:0.0361446 100:0.0481928 101:0.120482 104:0.0963855 115:0.060241 125:0.144578 154:0.0352683 155:0.0145287 158:0.0481928 163:0.0542169 183:0.0843373 187:0.0843373 206:0.0963855 256:0.0963855 272:0.120482 273:0.121409 275:0.116466 303:1 304:0.4 305:0.4 306:0.2 307:0.4 308:0.6 309:0.2 310:0.4 313:0.5 314:0.333333 315:0.25 316:0.333333 318:0.5 320:0.25 321:0.5 322:0.666667 323:0.333333 325:0.333333 327:0.333333 335:0.333333 337:0.666667 338:0.25 344:0.333333 346:0.25 349:0.666667 357:0.333333 364:0.333333 367:0.5 407:0.333333 411:0.333333 426:0.333333 
3.680711340658509 1:0.0857143 5:0.122184 6:0.0857143 7:0.171429 8:0.0857143 10:0.0775176 13:0.114286 16:0.1 20:0.114286 22:0.228571 23:0.0857143 30:0.114286 32:0.140476 36:0.0857143 40:0.228571 53:0.171429 63:0.171429 78:0.114286 100:0.114286 109:0.4 137:0.171429 150:0.228571 155:0.0344538 157:0.228571 187:0.2 200:0.228571 203:0.2 206:0.228571 243:0.2 247:0.285714 303:0.6 304:0.4 305:0.4 306:0.4 307:0.2 308:0.4 309:0.2 310:0.2 313:0.25 315:0.25 318:0.25 322:0.333333 324:0.25 329:0.333333 332:0.25 337:0.333333 341:0.333333 344:0.333333 347:0.25 361:0.333333 404:0.333333 
4.249999939970328 1:0.0344828 4:0.0143678 5:0.0983086 6:0.0689655 7:0.103448 9:0.0344828 10:0.155926 11:0.0299407 13:0.045977 20:0.045977 22:0.091954 24:0.045977 25:0.0574713 26:0.045977 29:0.0675287 30:0.091954 31:0.0689655 37:0.0306513 39:0.0124017 40:0.091954 51:0.0574713 52:0.0229885 55:0.0344828 57:0.0689655 60:0.0574713 63:0.0689655 95:0.114943 96:0.0344828 109:0.0804598 119:0.0574713 123:0.264368 148:0.0344828 152:0.16092 157:0.091954 163:0.0517241 166:0.045977 171:0.0804598 187:0.16092 211:0.126437 227:0.0574713 239:0.0689655 240:0.103448 303:0.8 304:0.6 305:0.2 306:0.4 307:0.6 308:0.6 309:0.2 310:0.4 312:0.5 313:0.5 314:0.333333 315:0.25 321:0.5 324:0.25 326:0.333333 327:0.333333 332:0.5 337:0.333333 338:0.75 339:0.333333 341:0.333333 344:0.333333 345:0.333333 346:0.25 347:0.25 364:0.333333 367:0.5 374:0.5 377:0.5 395:0.5 405:0.25 425:0.5 441:0.5 449:0.333333 
9.399133876288278 1:0.132353 3:0.051109 5:0.125777 22:0.117647 26:0.117647 27:0.176471 32:0.144608 37:0.0784314 39:0.0317337 40:0.117647 63:0.0882353 76:0.117647 106:0.176471 141:0.117647 157:0.117647 198:0.176471 203:0.205882 207:0.117647 292:0.308824 303:0.4 306:0.2 307:0.4 308:0.2 309:0.2 310:0.4 315:0.25 317:0.25 323:0.333333 330:0.333333 334:0.666667 354:0.25 357:0.333333 362:0.333333 366:0.333333 374:1 391:0.333333 392:0.333333 430:0.5 436:0.5 440:0.25 451:0.5 
4.33130390779666 1:0.0633803 2:0.0704225 3:0.0244747 4:0.0528169 5:0.0301157 6:0.126761 7:0.0422535 8:0.0422535 9:0.0422535 10:0.0382129 14:0.0422535 17:0.0422535 20:0.112676 22:0.28169 25:0.0704225 28:0.0802817 32:0.0692488 37:0.0751174 39:0.0607858 40:0.112676 41:0.056338 45:0.0704225 68:0.028169 71:0.169014 96:0.084507 97:0.056338 113:0.0352113 117:0.0704225 131:0.112676 150:0.056338 157:0.112676 179:0.0704225 181:0.056338 195:0.112676 227:0.0704225 274:0.056338 284:0.0704225 287:0.0985915 291:0.123239 303:1 304:0.6 305:0.4 306:0.4 307:0.2 308:0.4 309:0.2 310:0.6 311:0.2 316:0.666667 321:0.5 325:0.666667 328:0.333333 332:0.25 334:0.333333 343:0.333333 344:0.333333 346:0.25 349:0.333333 357:0.333333 366:0.333333 374:0.5 386:0.333333 390:0.25 392:0.333333 395:0.5 428:0.5 433:0.5 
13.51905558403772 1:0.0384615 5:0.164478 7:0.0769231 11:0.333954 20:0.102564 31:0.0769231 32:0.126068 57:0.153846 121:0.128205 140:0.128205 156:0.205128 203:0.179487 223:0.102564 303:0.4 304:0.2 306:0.2 308:0.4 313:0.25 326:0.333333 330:0.333333 334:0.333333 343:0.333333 347:0.25 350:0.333333 354:0.25 359:0.333333 369:0.333333 374:0.5 377:0.5 424:0.5 436:0.5 
5.750589984216742 1:0.15 5:0.213821 7:0.3 9:0.3 32:0.491667 57:0.6 95:0.5 107:0.7 121:0.5 150:0.4 203:0.7 239:0.6 247:0.5 303:0.4 304:0.2 308:0.2 313:0.25 321:0.25 323:0.333333 326:0.333333 332:0.25 
8.511158067375245 1:0.136364 5:0.194383 9:0.272727 16:0.318182 26:0.363636 32:0.44697 65:0.454545 95:0.454545 121:0.454545 203:0.636364 239:0.545455 303:0.2 304:0.2 305:0.2 307:0.2 308:0.2 315:0.25 321:0.25 326:0.333333 349:0.333333 385:0.5 
11.64403782314985 1:0.15 5:0.213821 9:0.3 32:0.491667 95:0.5 121:0.5 203:0.7 239:0.6 303:0.2 304:0.2 308:0.2 321:0.25 326:0.333333 359:0.333333 413:0.333333 423:0.5 
6.159210745227091 1:0.03 3:0.17377 4:0.125 5:0.0427642 6:0.24 7:0.06 8:0.06 9:0.06 14:0.06 18:0.04 21:0.09 37:0.0533333 51:0.1 52:0.04 56:0.08 81:0.04 85:0.12 111:0.08 119:0.1 121:0.2 136:0.06 153:0.057641 159:0.0380952 162:0.035873 166:0.08 197:0.16 213:0.2 214:0.16 303:1 304:0.4 305:0.2 306:0.4 309:0.2 312:0.5 313:0.25 318:0.25 319:0.333333 324:0.25 326:0.666667 329:0.333333 347:0.25 349:0.333333 353:0.333333 366:0.333333 368:0.333333 369:0.333333 388:1 398:0.5 
10.250633703352 1:0.0731707 3:0.127149 4:0.0609756 7:0.219512 10:0.0661735 17:0.146341 22:0.097561 29:0.286585 33:0.146341 39:0.0263158 40:0.097561 57:0.146341 71:0.146341 74:0.292683 94:0.121951 129:0.0731707 133:0.097561 136:0.0731707 157:0.097561 175:0.146341 178:0.170732 179:0.121951 181:0.097561 182:0.170732 244:0.195122 299:0.292683 303:0.6 304:0.2 305:0.2 306:0.2 308:0.2 309:0.2 310:0.4 313:0.25 316:0.333333 317:0.25 321:0.25 328:0.333333 329:0.666667 346:0.25 352:0.333333 354:0.25 356:0.333333 363:0.333333 381:0.333333 406:0.333333 
4.809356605205553 1:0.0272727 2:0.0454545 3:0.0631893 4:0.0454545 5:0.0194383 6:0.0818182 7:0.0272727 8:0.0272727 9:0.0272727 10:0.0246647 11:0.0947214 14:0.0545455 20:0.0727273 22:0.0363636 23:0.0272727 26:0.0363636 32:0.044697 37:0.0727273 42:0.044697 52:0.0181818 56:0.0363636 62:0.0363636 64:0.0909091 68:0.0181818 76:0.0363636 83:0.0727273 111:0.0363636 121:0.0909091 124:0.0636364 126:0.0636364 134:0.0363636 136:0.0545455 146:0.0363636 153:0.0131002 156:0.0727273 158:0.0363636 166:0.0363636 203:0.0636364 222:0.0818182 249:0.0363636 303:1 304:0.8 305:0.2 306:0.4 307:0.4 308:0.2 309:0.2 310:0.2 312:0.25 313:0.25 314:0.333333 315:0.25 316:0.333333 317:0.25 319:0.333333 324:0.25 326:0.333333 327:0.666667 329:0.666667 331:0.25 334:0.333333 337:0.333333 339:0.333333 345:0.333333 346:0.5 347:0.25 349:0.333333 350:0.333333 352:0.333333 364:0.333333 366:0.666667 375:0.5 380:0.333333 381:0.333333 385:0.5 390:0.25 391:0.666667 396:0.333333 400:0.333333 417:0.333333 428:0.5 434:0.333333 
7.78059422741867 2:0.0793651 3:0.11033 4:0.0198413 5:0.0339399 6:0.047619 7:0.0952381 9:0.047619 12:0.124868 14:0.047619 17:0.142857 25:0.15873 26:0.126984 28:0.0904762 31:0.047619 34:0.047619 41:0.0634921 52:0.031746 68:0.031746 79:0.0952381 81:0.031746 121:0.0793651 122:0.0555556 137:0.0952381 138:0.0634921 188:0.15873 273:0.159951 303:1 304:0.4 305:0.4 307:0.4 308:0.4 309:0.2 310:0.2 312:0.25 316:0.333333 318:0.5 326:0.666667 329:0.333333 330:0.333333 337:0.333333 347:0.25 355:0.333333 375:0.5 378:0.5 386:0.333333 387:0.333333 389:0.5 396:0.333333 398:0.5 417:0.333333 427:0.5 428:0.5 438:0.333333 440:0.25 
4.795127812564235 1:0.016129 2:0.107527 3:0.03737 4:0.0672043 7:0.0322581 8:0.0645161 9:0.0322581 10:0.0291733 11:0.028009 12:0.0422939 14:0.16129 16:0.0376344 20:0.0430108 24:0.0430108 25:0.107527 26:0.0860215 34:0.0322581 37:0.0860215 38:0.0528674 39:0.0116016 41:0.0430108 52:0.0215054 56:0.0430108 63:0.0322581 64:0.107527 68:0.0430108 71:0.0645161 89:0.0645161 112:0.0430108 116:0.0268817 121:0.107527 126:0.0752688 132:0.107527 140:0.0537634 158:0.0860215 166:0.0430108 171:0.0752688 222:0.0967742 236:0.129032 303:0.6 304:1 305:0.4 306:0.2 307:0.6 309:0.4 310:0.6 312:0.25 313:0.25 315:0.5 316:0.666667 320:0.25 324:0.25 325:0.333333 326:0.333333 327:0.333333 328:0.333333 330:0.333333 337:0.333333 339:0.666667 347:0.25 350:0.333333 359:0.333333 364:0.666667 366:0.333333 375:0.5 380:0.333333 386:0.333333 389:0.5 390:0.25 391:0.333333 396:0.333333 399:0.333333 417:0.333333 425:0.5 434:0.333333 438:0.333333 440:0.25 442:0.333333 445:0.333333 
7.198514827320284 1:0.0172414 3:0.0599209 4:0.0862069 5:0.0737314 6:0.0344828 7:0.103448 8:0.0689655 13:0.045977 14:0.0344828 21:0.0517241 23:0.0344828 39:0.0124017 42:0.0565134 43:0.0215517 45:0.0574713 51:0.0574713 53:0.0689655 55:0.0344828 58:0.0202945 76:0.045977 84:0.0344828 87:0.0344828 88:0.0574713 92:0.0402299 98:0.103448 101:0.172414 103:0.0574713 114:0.045977 126:0.0804598 130:0.103448 136:0.0344828 158:0.045977 163:0.0517241 198:0.0689655 249:0.045977 303:1 304:0.2 305:0.4 306:0.2 307:0.2 310:0.4 311:0.4 312:0.25 313:0.5 314:0.333333 317:0.25 319:0.666667 320:0.5 322:0.666667 323:0.333333 325:0.333333 327:0.333333 328:0.333333 329:0.333333 337:0.333333 338:0.25 341:0.333333 354:0.25 365:0.333333 377:0.5 381:0.333333 385:0.5 392:0.333333 398:0.5 411:0.333333 415:0.5 429:0.5 433:1 438:0.333333 
11.18319338932484 1:0.0348837 4:0.0290698 7:0.0697674 12:0.137209 13:0.55814 19:0.0465116 23:0.0697674 28:0.397674 35:0.139535 36:0.0697674 44:0.0821221 53:0.139535 54:0.0620155 55:0.27907 63:0.209302 64:0.116279 80:0.162791 89:0.139535 96:0.0697674 114:0.186047 155:0.0280438 163:0.418605 165:0.139535 224:0.325581 228:0.104651 300:0.116279 303:0.4 304:0.2 305:0.2 306:0.2 307:0.2 308:0.2 309:0.4 311:0.2 313:0.75 315:0.5 318:0.25 320:0.25 321:0.25 325:0.333333 381:0.333333 
2.645880905041013 1:0.0217391 4:0.0241546 5:0.0103295 6:0.057971 7:0.0289855 8:0.0144928 9:0.0144928 10:0.0393205 12:0.00950081 13:0.0966184 15:0.0144928 18:0.0289855 19:0.0193237 23:0.0144928 25:0.0241546 30:0.0386473 31:0.0144928 32:0.047504 35:0.0289855 36:0.0289855 40:0.0193237 46:0.0241546 47:0.0386473 53:0.0289855 54:0.0386473 55:0.0289855 56:0.0193237 61:0.0193237 66:0.0193237 70:0.0289855 84:0.0144928 87:0.0144928 95:0.0241546 96:0.0144928 99:0.0144928 108:0.0434783 114:0.0966184 119:0.0241546 121:0.0241546 133:0.0386473 142:0.0289855 152:0.0169082 154:0.0141414 155:0.011651 163:0.0434783 164:0.02657 191:0.041868 197:0.0386473 205:0.0483092 218:0.0676329 225:0.0289855 226:0.0772947 230:0.0664251 246:0.0241546 251:0.0144928 260:0.0483092 262:0.0289855 265:0.0193237 277:0.0869565 282:0.0772947 298:0.0386473 303:0.8 304:0.8 305:0.4 306:0.4 307:0.4 308:0.6 309:0.4 310:0.2 311:0.4 313:1 314:0.333333 315:0.25 316:0.333333 319:0.666667 321:0.5 322:0.333333 324:0.25 325:0.333333 326:0.666667 329:0.333333 330:0.333333 332:0.25 333:0.666667 334:0.333333 336:0.666667 337:0.333333 339:0.666667 340:0.5 341:1 342:0.333333 343:0.333333 346:0.25 347:0.25 348:0.333333 349:0.333333 350:0.333333 351:0.333333 352:0.333333 353:0.333333 354:0.25 356:0.333333 359:0.333333 360:0.333333 361:0.333333 362:0.333333 363:0.333333 367:0.5 372:0.5 374:0.5 376:0.333333 379:0.333333 380:0.333333 383:0.5 387:0.333333 388:0.5 391:0.333333 394:0.333333 397:0.333333 398:0.5 399:0.666667 404:0.333333 408:0.333333 413:0.333333 415:0.5 419:0.333333 424:0.5 431:0.333333 432:0.5 446:0.5 447:0.333333 
8.945032297192462 1:0.0238095 3:0.0551652 4:0.0396825 5:0.0339399 6:0.0952381 7:0.047619 9:0.0952381 12:0.0624339 13:0.126984 23:0.047619 26:0.0634921 36:0.047619 39:0.0342523 54:0.0846561 55:0.047619 58:0.0280258 61:0.0634921 65:0.0793651 66:0.0634921 108:0.047619 114:0.0634921 115:0.0793651 119:0.0793651 133:0.0634921 140:0.0793651 155:0.019141 159:0.0302343 163:0.0714286 164:0.0873016 225:0.0952381 226:0.253968 228:0.0714286 230:0.218254 246:0.0793651 251:0.047619 260:0.15873 277:0.285714 281:0.15873 293:0.15873 298:0.126984 303:1 304:0.4 305:0.2 307:0.4 309:0.2 310:0.2 313:0.5 314:0.666667 315:0.5 324:0.25 325:0.666667 326:0.333333 329:0.333333 330:0.333333 334:0.333333 336:0.333333 338:0.25 340:0.25 342:0.333333 346:0.25 347:0.25 348:0.333333 349:0.333333 353:0.333333 356:0.333333 359:0.333333 363:0.333333 372:0.5 390:0.25 394:0.333333 399:0.333333 408:0.333333 435:0.25 
6.152547289258709 3:0.105958 4:0.0304878 6:0.182927 7:0.0731707 9:0.0731707 10:0.0661735 13:0.0487805 16:0.0853659 22:0.0487805 23:0.0731707 25:0.0609756 36:0.0365854 40:0.0487805 45:0.121951 47:0.097561 50:0.144535 54:0.0650407 56:0.146341 61:0.0487805 66:0.0487805 99:0.0365854 102:0.0853659 105:0.0487805 108:0.0365854 112:0.0487805 114:0.0487805 133:0.0487805 155:0.0147059 157:0.0487805 181:0.0487805 191:0.105691 194:0.0609756 197:0.292683 199:0.102787 201:0.0853659 225:0.0731707 226:0.195122 230:0.167683 238:0.243902 246:0.0609756 251:0.0365854 260:0.121951 267:0.146341 277:0.219512 284:0.0609756 294:0.121951 303:0.8 304:0.4 305:0.4 306:0.2 307:0.4 309:0.2 310:0.2 311:0.4 312:0.25 313:0.5 314:0.333333 315:0.25 322:0.666667 323:0.333333 324:0.5 325:0.333333 329:0.333333 333:0.333333 334:0.333333 336:0.333333 338:0.25 341:0.333333 342:0.333333 347:0.25 353:0.333333 354:0.25 360:0.333333 363:0.333333 384:0.333333 388:0.5 390:0.25 407:0.333333 408:0.666667 440:0.25 
3.298275675089501 1:0.115385 3:0.267339 4:0.0961538 8:0.230769 9:0.230769 13:0.307692 22:0.307692 26:0.307692 40:0.307692 157:0.307692 158:0.307692 159:0.14652 216:1 296:0.615385 303:0.4 304:0.4 305:0.2 306:0.2 307:0.2 310:0.2 349:0.333333 408:0.333333 426:0.333333 
7.026559818822251 1:0.0153061 3:0.0177317 4:0.0255102 5:0.0218185 6:0.153061 8:0.0612245 9:0.0612245 10:0.0276848 13:0.0816327 14:0.0306122 19:0.0204082 20:0.0408163 22:0.0408163 23:0.0306122 24:0.0816327 25:0.0510204 29:0.059949 32:0.0501701 36:0.0306122 41:0.0408163 44:0.0180166 45:0.0510204 54:0.0544218 56:0.0408163 58:0.0540497 61:0.0408163 66:0.0408163 70:0.0612245 71:0.0612245 78:0.122449 105:0.204082 106:0.0612245 107:0.142857 108:0.0306122 133:0.0408163 142:0.0612245 155:0.0123049 158:0.0816327 179:0.0510204 194:0.0510204 195:0.0816327 197:0.0816327 225:0.0612245 226:0.163265 230:0.140306 232:0.204082 238:0.102041 246:0.0510204 251:0.0306122 253:0.0510204 266:0.0816327 277:0.183673 278:0.0714286 285:0.204082 298:0.0816327 303:0.8 304:0.6 305:0.4 306:0.6 307:0.6 308:0.4 309:0.2 310:0.2 311:0.4 313:0.5 314:0.666667 315:0.25 316:0.666667 318:0.25 323:1 324:0.25 329:0.333333 330:0.333333 333:0.333333 334:0.666667 336:0.333333 341:0.333333 342:0.333333 344:0.333333 347:0.25 358:0.333333 362:0.333333 363:0.333333 373:0.5 374:0.5 390:0.25 425:0.5 428:0.5 
9.113090712641373 2:0.0909091 3:0.0947839 4:0.0227273 6:0.163636 7:0.0545455 9:0.0545455 10:0.0986587 12:0.0357576 13:0.0727273 16:0.127273 19:0.109091 23:0.0545455 36:0.0545455 47:0.0727273 53:0.218182 68:0.0363636 78:0.0727273 92:0.0636364 145:0.0636364 147:0.0909091 152:0.0636364 153:0.0262005 155:0.0219251 200:0.145455 201:0.0636364 225:0.109091 226:0.290909 228:0.0818182 230:0.25 260:0.181818 263:0.127273 281:0.181818 303:0.8 304:0.6 305:0.4 306:0.2 307:0.2 309:0.2 311:0.2 313:0.25 316:0.333333 318:0.25 320:0.25 331:0.5 332:0.25 334:0.333333 336:0.333333 338:0.25 342:0.333333 347:0.25 352:0.333333 353:0.333333 354:0.25 364:0.333333 374:1 380:0.333333 383:0.25 390:0.25 408:0.333333 425:0.5 
5.619953268044195 3:0.0434426 4:0.03125 5:0.0267276 6:0.1125 7:0.075 8:0.0375 9:0.0375 12:0.0245833 13:0.05 16:0.04375 17:0.0375 22:0.05 23:0.0375 24:0.05 36:0.0375 54:0.0666667 61:0.05 79:0.075 83:0.05 111:0.05 126:0.0875 133:0.05 136:0.0375 142:0.075 155:0.0150735 225:0.075 226:0.2 230:0.171875 246:0.0625 251:0.0375 266:0.1 277:0.225 298:0.1 303:1 304:0.6 305:0.6 306:0.2 307:0.4 309:0.2 313:0.25 314:0.333333 318:0.25 319:0.333333 324:0.25 327:0.333333 329:0.666667 330:0.333333 333:0.333333 334:0.666667 335:0.333333 336:0.333333 342:0.333333 347:0.25 348:0.333333 358:0.666667 363:0.333333 365:0.333333 367:0.5 368:0.333333 371:0.333333 374:0.5 384:0.333333 385:0.5 390:0.25 393:0.333333 400:0.333333 
3.396537739219092 1:0.0789474 4:0.0657895 6:0.0789474 9:0.157895 10:0.0713978 13:0.105263 19:0.105263 23:0.0789474 32:0.129386 36:0.0789474 60:0.131579 66:0.105263 108:0.0789474 125:0.157895 133:0.105263 155:0.0317337 160:0.0472013 194:0.131579 225:0.157895 226:0.421053 230:0.361842 260:0.263158 294:0.263158 303:0.4 304:0.4 305:0.2 306:0.2 307:0.2 308:0.2 309:0.2 314:0.333333 315:0.25 324:0.25 327:0.333333 329:0.333333 333:0.333333 334:0.666667 336:0.333333 341:0.333333 342:0.333333 346:0.25 347:0.25 352:0.333333 353:0.333333 354:0.25 359:0.333333 362:0.333333 374:0.5 385:0.5 390:0.25 408:0.333333 
9.840995601250365 3:0.121235 4:0.0290698 5:0.0497258 6:0.139535 7:0.0697674 9:0.139535 13:0.0930233 23:0.0697674 36:0.0697674 44:0.0821221 50:0.137812 53:0.139535 66:0.0930233 83:0.0930233 101:0.116279 104:0.0930233 108:0.0697674 115:0.116279 133:0.0930233 153:0.0335122 155:0.0280438 160:0.0417128 194:0.116279 225:0.139535 226:0.372093 230:0.319767 275:0.224806 276:0.209302 294:0.232558 303:1 304:0.2 305:0.2 307:0.2 309:0.2 311:0.2 312:0.25 313:0.25 315:0.25 319:0.333333 322:0.333333 323:0.333333 324:0.25 325:0.333333 329:0.333333 333:0.333333 334:0.333333 335:0.333333 336:0.333333 342:0.333333 347:0.25 358:0.333333 363:0.333333 374:0.5 380:0.333333 390:0.25 411:0.333333 425:0.5 
0.6413930277407987 1:0.0138889 3:0.0643594 4:0.0231481 5:0.0197983 6:0.111111 7:0.0833333 8:0.0277778 9:0.0555556 13:0.111111 14:0.0277778 16:0.0324074 18:0.0185185 19:0.037037 23:0.0555556 24:0.037037 27:0.0555556 36:0.0555556 49:0.0606061 51:0.0462963 53:0.0555556 54:0.0740741 55:0.0277778 66:0.0740741 69:0.0277778 77:0.0277778 78:0.037037 108:0.0555556 111:0.0740741 113:0.0231481 116:0.0231481 119:0.0925926 133:0.0740741 152:0.0324074 153:0.0133428 155:0.0223312 161:0.0462963 163:0.0416667 194:0.0925926 200:0.0740741 208:0.0740741 225:0.111111 226:0.296296 230:0.25463 240:0.0833333 246:0.0462963 251:0.0277778 260:0.185185 277:0.166667 294:0.185185 298:0.0740741 303:1 304:0.4 305:0.6 306:0.4 307:0.6 309:0.2 312:0.5 313:0.75 315:0.25 316:0.333333 317:0.25 318:0.25 324:0.5 325:0.666667 326:0.333333 329:0.333333 332:0.25 333:0.333333 334:0.333333 336:0.333333 337:0.333333 341:0.333333 342:0.333333 343:0.333333 345:0.333333 347:0.25 352:0.333333 353:0.333333 354:0.25 361:0.666667 362:0.666667 363:0.333333 364:0.333333 368:0.333333 369:0.333333 374:0.5 375:0.5 385:0.5 386:0.333333 390:0.25 407:0.333333 408:0.333333 411:0.333333 421:0.333333 441:0.5 442:0.666667 443:0.5 
1.832540945175571 1:0.139535 2:0.116279 3:0.0404117 6:0.139535 7:0.0697674 9:0.0697674 10:0.0630957 13:0.0930233 15:0.139535 16:0.0813953 19:0.0465116 23:0.0697674 36:0.0697674 54:0.124031 59:0.0930233 66:0.0930233 68:0.0465116 73:0.186047 108:0.0697674 109:0.162791 124:0.162791 155:0.0280438 180:0.0930233 185:0.186047 186:0.139535 194:0.116279 225:0.139535 226:0.372093 230:0.319767 246:0.116279 251:0.0697674 260:0.232558 277:0.418605 294:0.232558 298:0.186047 303:0.6 304:0.4 305:0.6 306:0.2 307:0.2 309:0.2 313:0.25 314:0.333333 315:0.25 316:0.333333 317:0.25 324:0.5 327:0.333333 333:0.333333 334:0.333333 336:0.333333 342:0.333333 347:0.25 353:0.333333 363:0.333333 375:0.5 403:0.5 413:0.333333 421:0.333333 
4.083276421396754 1:0.04 3:0.0695082 4:0.05 5:0.0285095 6:0.12 8:0.16 9:0.2 13:0.0533333 14:0.04 22:0.0533333 23:0.04 24:0.0533333 32:0.0655556 36:0.04 40:0.0533333 42:0.0655556 43:0.025 49:0.0436364 50:0.0790123 54:0.0711111 66:0.0533333 85:0.08 100:0.106667 101:0.2 108:0.04 109:0.0933333 133:0.0533333 155:0.0160784 157:0.0533333 160:0.0239153 181:0.0533333 184:0.0733333 194:0.0666667 210:0.0933333 225:0.08 226:0.213333 230:0.183333 246:0.0666667 251:0.04 252:0.2 260:0.133333 277:0.24 289:0.153333 294:0.133333 298:0.106667 303:0.8 304:0.4 305:0.4 306:0.2 307:0.4 308:0.2 309:0.2 310:0.4 311:0.2 312:0.5 313:0.25 315:0.25 319:0.333333 322:0.666667 324:0.5 329:0.333333 333:0.333333 334:0.666667 335:0.333333 336:0.333333 340:0.25 342:0.333333 345:0.333333 347:0.25 353:0.333333 363:0.333333 364:0.333333 375:0.5 381:0.333333 386:0.333333 402:0.5 421:0.333333 
11.82636336903436 3:0.0543033 6:0.1875 7:0.09375 9:0.09375 13:0.125 23:0.09375 36:0.09375 54:0.166667 66:0.125 80:0.21875 108:0.09375 133:0.125 155:0.0376838 194:0.15625 225:0.1875 226:0.5 230:0.429688 246:0.15625 251:0.09375 260:0.3125 277:0.5625 294:0.3125 298:0.25 303:0.6 304:0.2 305:0.2 307:0.2 309:0.2 313:0.25 315:0.25 318:0.25 324:0.25 329:0.333333 333:0.333333 334:0.333333 336:0.333333 341:0.333333 342:0.333333 346:0.25 347:0.25 353:0.333333 363:0.333333 364:0.333333 375:0.5 381:0.333333 385:0.5 413:0.333333 421:0.333333 422:0.333333 432:0.5 
2.801223328436286 1:0.0340909 3:0.0789866 4:0.0852273 5:0.0485957 6:0.0681818 7:0.0681818 9:0.204545 13:0.0909091 23:0.0681818 36:0.0681818 46:0.113636 47:0.0909091 50:0.13468 52:0.0454545 54:0.121212 66:0.0909091 75:0.0909091 76:0.0909091 108:0.0681818 110:0.0852273 133:0.0909091 155:0.0274064 159:0.04329 166:0.0909091 173:0.159091 191:0.19697 194:0.113636 198:0.136364 221:0.204545 225:0.136364 226:0.363636 230:0.3125 246:0.113636 249:0.0909091 250:0.159091 251:0.0681818 260:0.227273 277:0.409091 294:0.227273 298:0.181818 303:1 304:0.2 305:0.2 307:0.2 309:0.2 311:0.4 312:0.5 313:0.25 315:0.25 317:0.5 324:0.5 329:0.333333 333:0.333333 334:0.333333 336:0.333333 341:0.333333 342:0.333333 346:0.25 347:0.25 353:0.333333 363:0.333333 368:0.333333 375:0.5 381:0.333333 421:0.333333 425:0.5 
9.881923942600684 1:0.130435 4:0.0543478 5:0.185931 7:0.130435 9:0.130435 10:0.235923 13:0.173913 15:0.130435 19:0.0869565 26:0.173913 45:0.217391 55:0.130435 79:0.26087 91:0.217391 97:0.0869565 163:0.195652 171:0.304348 220:0.304348 284:0.217391 292:0.456522 303:0.6 304:0.4 305:0.4 306:0.2 307:0.2 311:0.2 313:0.25 318:0.25 320:0.25 321:0.25 345:0.333333 351:0.333333 357:0.333333 442:0.333333 
3.816245212439785 1:0.0182927 3:0.148341 4:0.0152439 5:0.0782272 6:0.182927 7:0.0365854 8:0.0731707 9:0.0365854 13:0.0487805 17:0.0365854 21:0.054878 23:0.0731707 34:0.0365854 36:0.0365854 43:0.0228659 51:0.0609756 54:0.0650407 66:0.0487805 89:0.0731707 91:0.0609756 93:0.0609756 102:0.0853659 106:0.146341 108:0.0365854 133:0.0487805 144:0.0853659 153:0.035147 155:0.0147059 162:0.0218738 174:0.0487805 177:0.0487805 194:0.0609756 196:0.109756 225:0.0731707 226:0.195122 230:0.167683 246:0.0609756 251:0.0365854 260:0.121951 277:0.219512 281:0.121951 294:0.121951 298:0.097561 303:1 304:0.4 305:0.4 306:0.2 307:0.2 309:0.4 311:0.2 312:0.25 313:0.25 315:0.25 320:0.5 321:0.25 322:0.333333 323:0.333333 324:0.25 329:0.333333 331:0.25 333:0.333333 334:0.666667 336:0.333333 338:0.25 341:0.333333 342:0.333333 345:0.333333 347:0.25 351:0.333333 353:0.333333 357:0.333333 363:0.333333 364:0.333333 368:0.333333 373:0.5 374:0.5 375:0.5 402:0.5 411:0.333333 421:0.333333 
4.816380274928848 1:0.0681818 6:0.136364 7:0.102273 8:0.0340909 9:0.0340909 10:0.0308308 12:0.044697 13:0.0454545 14:0.0340909 15:0.0340909 16:0.0397727 23:0.0340909 33:0.0681818 34:0.0340909 36:0.0340909 39:0.0245215 49:0.0371901 51:0.113636 54:0.0606061 62:0.136364 66:0.0454545 71:0.0681818 79:0.204545 85:0.0681818 89:0.0681818 98:0.102273 101:0.0568182 103:0.0568182 108:0.0340909 133:0.0454545 137:0.0681818 148:0.0340909 155:0.0137032 179:0.0568182 180:0.0454545 194:0.0568182 225:0.0681818 226:0.181818 230:0.15625 246:0.0568182 251:0.0340909 260:0.113636 277:0.204545 294:0.113636 298:0.0909091 303:0.4 304:0.8 305:0.8 307:0.2 309:0.6 310:0.2 312:0.5 313:0.25 314:0.333333 315:0.25 316:0.333333 318:0.25 319:0.333333 320:0.25 322:0.666667 323:0.333333 324:0.25 329:0.666667 332:0.25 333:0.333333 334:0.333333 336:0.333333 337:0.333333 342:0.666667 344:0.333333 346:0.25 347:0.25 353:0.333333 356:0.333333 359:0.333333 363:0.333333 375:0.5 381:0.333333 384:0.333333 390:0.25 405:0.25 406:0.333333 421:0.333333 427:0.5 
8.119787816480283 3:0.0394933 4:0.0284091 6:0.136364 7:0.0681818 9:0.0681818 13:0.0909091 19:0.0909091 23:0.136364 36:0.0681818 51:0.113636 56:0.0909091 61:0.0909091 66:0.0909091 70:0.136364 114:0.0909091 133:0.0909091 155:0.0274064 197:0.181818 225:0.136364 226:0.363636 230:0.3125 260:0.227273 267:0.272727 303:0.8 304:0.2 305:0.2 306:0.2 307:0.2 309:0.2 312:0.25 313:0.25 314:0.333333 315:0.25 316:0.333333 325:0.333333 329:0.333333 333:0.333333 334:0.333333 336:0.333333 338:0.25 342:0.333333 347:0.25 352:0.333333 353:0.333333 354:0.25 360:0.333333 375:0.5 421:0.333333 433:0.5 
2.378868748398365 1:0.0202703 2:0.0506757 3:0.046965 4:0.0380068 5:0.0361184 6:0.0810811 7:0.131757 8:0.0202703 9:0.0304054 10:0.0183319 12:0.0132883 13:0.027027 15:0.0101351 16:0.0236486 18:0.0337838 20:0.0135135 21:0.0304054 22:0.0675676 23:0.0202703 24:0.0540541 25:0.0168919 26:0.027027 30:0.0810811 34:0.0810811 36:0.0202703 45:0.0506757 46:0.0675676 47:0.0135135 51:0.101351 53:0.0202703 54:0.018018 62:0.108108 63:0.0101351 66:0.0135135 69:0.0608108 70:0.0202703 76:0.0135135 77:0.0101351 79:0.0405405 87:0.0101351 88:0.0168919 95:0.0168919 98:0.0304054 104:0.027027 107:0.0472973 112:0.027027 116:0.00844595 119:0.0337838 122:0.0118243 133:0.0135135 138:0.0135135 144:0.0945946 148:0.0304054 151:0.0168919 152:0.0118243 155:0.00814785 159:0.00643501 161:0.0168919 171:0.0472973 174:0.0135135 180:0.0135135 183:0.0945946 185:0.027027 191:0.0292793 198:0.0202703 199:0.0284749 211:0.111486 213:0.0337838 221:0.0304054 225:0.0202703 226:0.0540541 230:0.0464527 239:0.0202703 245:0.162162 246:0.0168919 249:0.0135135 251:0.0101351 260:0.0337838 266:0.027027 277:0.0608108 284:0.0168919 296:0.027027 298:0.027027 303:1 304:0.8 305:0.6 306:0.8 307:0.8 308:0.2 309:0.4 311:0.6 312:0.25 313:0.5 314:0.333333 315:0.5 316:0.666667 317:0.5 318:0.25 319:0.333333 320:0.25 321:0.25 322:0.333333 323:0.666667 324:0.25 325:0.333333 326:0.666667 329:0.333333 330:0.333333 331:0.25 332:0.75 333:1 334:0.666667 335:0.333333 336:0.333333 338:0.25 340:0.25 342:0.333333 345:0.333333 346:0.25 347:0.25 348:0.333333 349:0.333333 351:0.333333 353:0.333333 356:0.666667 357:0.666667 359:0.666667 360:0.333333 363:0.333333 364:0.333333 366:0.666667 370:0.25 372:0.5 375:0.5 380:0.333333 382:0.333333 384:0.333333 388:0.5 400:0.333333 401:0.5 402:0.5 409:0.5 414:0.5 420:0.5 421:0.333333 424:0.5 426:0.333333 427:0.5 433:0.5 437:0.333333 
17.02300307492863 3:0.205781 4:0.0493421 5:0.0562687 6:0.118421 7:0.0789474 8:0.0789474 9:0.0789474 11:0.137097 17:0.0394737 18:0.0526316 19:0.0263158 29:0.0773026 34:0.0394737 42:0.064693 49:0.0861244 51:0.0657895 52:0.0526316 61:0.0526316 65:0.0657895 90:0.0350877 95:0.0657895 96:0.0394737 102:0.0921053 144:0.0921053 151:0.0657895 153:0.0379217 159:0.0250627 161:0.0657895 166:0.0526316 176:0.0789474 218:0.0921053 258:0.131579 267:0.157895 291:0.115132 303:1 304:0.6 305:0.2 306:0.4 308:0.2 309:0.2 310:0.2 312:0.75 314:0.333333 315:0.25 320:0.25 321:0.5 322:0.333333 331:0.25 332:0.25 340:0.25 342:0.333333 360:0.333333 361:0.333333 395:0.5 401:0.5 436:0.5 443:0.5 
3.495755416362353 3:0.0506128 4:0.0364078 5:0.031139 6:0.101942 7:0.0436893 8:0.0145631 9:0.0728155 10:0.0263409 12:0.0190939 13:0.0582524 17:0.0145631 19:0.038835 23:0.0291262 24:0.038835 27:0.145631 31:0.0145631 36:0.0291262 38:0.0238673 43:0.00910194 44:0.051426 45:0.0485437 47:0.038835 49:0.0317741 51:0.0242718 54:0.0517799 56:0.0194175 57:0.0873786 61:0.0194175 62:0.0194175 64:0.0728155 66:0.0194175 69:0.0145631 71:0.0291262 80:0.0679612 90:0.012945 95:0.0242718 96:0.0145631 102:0.0679612 108:0.0145631 119:0.0485437 126:0.0339806 133:0.038835 151:0.0242718 155:0.0117076 159:0.0184928 178:0.0339806 192:0.0194175 194:0.0242718 196:0.0436893 207:0.0194175 217:0.0242718 220:0.0679612 221:0.0436893 225:0.0582524 226:0.15534 230:0.133495 231:0.0621359 234:0.0582524 240:0.0873786 246:0.0242718 251:0.0145631 260:0.0485437 267:0.0582524 271:0.0339806 277:0.0873786 294:0.0485437 298:0.038835 303:1 304:0.8 305:0.4 306:0.2 307:0.6 308:0.2 309:0.2 310:0.2 311:0.8 312:0.5 313:0.75 314:0.666667 315:0.5 316:0.666667 318:0.25 320:0.25 321:0.5 322:0.333333 324:0.25 326:0.333333 327:0.333333 329:0.333333 332:0.25 333:1 334:1 335:0.333333 336:0.333333 341:0.666667 342:0.333333 343:0.333333 347:0.5 349:0.333333 352:0.333333 353:0.333333 354:0.25 355:0.666667 358:0.333333 360:0.333333 361:0.333333 363:0.333333 367:0.5 368:0.333333 375:0.5 390:0.25 391:0.333333 394:0.333333 398:0.5 401:0.5 402:0.5 405:0.25 407:0.333333 421:0.333333 424:0.5 450:0.5 
19.38789489612713 1:0.121622 4:0.0337838 8:0.0810811 10:0.146655 14:0.0810811 19:0.108108 20:0.108108 27:0.162162 31:0.0810811 32:0.265766 46:0.135135 59:0.108108 63:0.0810811 71:0.162162 87:0.0810811 126:0.189189 142:0.162162 173:0.189189 179:0.135135 186:0.162162 195:0.216216 303:0.2 304:0.4 305:0.2 306:0.4 307:0.2 308:0.4 311:0.2 314:0.333333 315:0.25 316:0.333333 319:0.333333 327:0.333333 330:0.333333 333:0.333333 337:0.333333 342:0.333333 344:0.333333 347:0.25 364:0.333333 421:0.333333 
5.982977303482663 4:0.0681818 6:0.109091 8:0.0545455 9:0.109091 12:0.0357576 13:0.0727273 16:0.0636364 23:0.109091 26:0.0727273 36:0.0545455 53:0.109091 54:0.0969697 57:0.109091 61:0.0727273 66:0.0727273 108:0.0545455 111:0.145455 133:0.0727273 142:0.109091 155:0.0219251 158:0.0727273 194:0.0909091 217:0.0909091 225:0.109091 226:0.290909 230:0.25 242:0.218182 246:0.0909091 251:0.0545455 260:0.181818 277:0.327273 303:0.4 304:0.6 305:0.4 307:0.4 309:0.2 313:0.75 314:0.333333 315:0.25 324:0.5 329:0.333333 330:0.333333 334:0.333333 335:0.333333 336:0.666667 342:0.666667 344:0.333333 346:0.25 347:0.25 353:0.333333 354:0.5 356:0.333333 363:0.333333 371:0.333333 378:0.5 380:0.333333 391:0.333333 401:0.5 403:0.5 408:0.333333 413:0.333333 418:0.333333 450:0.5 
5.977848304847774 1:0.09375 2:0.208333 5:0.133638 7:0.0625 8:0.125 10:0.0565232 11:0.0542675 12:0.122917 15:0.0625 20:0.25 21:0.09375 28:0.2375 38:0.204861 39:0.0224781 41:0.0833333 57:0.125 63:0.0625 68:0.0416667 90:0.0555556 102:0.145833 128:0.104167 131:0.0833333 139:0.0555556 147:0.208333 154:0.0609848 264:0.291667 303:0.4 304:0.8 305:0.2 306:0.4 308:0.2 310:0.6 313:0.25 315:0.25 316:0.333333 320:0.25 322:0.333333 328:0.666667 330:0.333333 331:0.25 336:0.333333 338:0.25 369:0.333333 376:0.333333 380:0.333333 385:0.5 387:0.333333 403:0.5 406:0.333333 419:0.333333 422:0.333333 
2.470074813895856 1:0.0142518 3:0.0123827 4:0.0118765 5:0.0203155 6:0.0213777 7:0.0213777 8:0.00712589 9:0.0285036 10:0.0128889 11:0.167056 12:0.0233571 13:0.114014 15:0.0142518 16:0.0166271 17:0.00712589 18:0.023753 19:0.00950119 22:0.00950119 23:0.0142518 25:0.0356295 27:0.0142518 28:0.0947743 29:0.0139549 31:0.00712589 35:0.0285036 36:0.00712589 38:0.0817498 40:0.00950119 42:0.0116785 44:0.00419388 48:0.00475059 55:0.0783848 61:0.0190024 64:0.0118765 66:0.0285036 79:0.0142518 80:0.0166271 84:0.0142518 86:0.00712589 95:0.0356295 97:0.0142518 100:0.00950119 104:0.00950119 114:0.00950119 115:0.0118765 122:0.00831354 123:0.013658 124:0.0166271 126:0.0166271 133:0.0380048 136:0.00712589 142:0.0570071 147:0.0118765 154:0.00695314 155:0.00286433 156:0.142518 157:0.00950119 158:0.00950119 159:0.00452438 163:0.117577 165:0.0570071 180:0.00950119 185:0.0190024 218:0.0166271 265:0.0190024 278:0.0166271 286:0.0142518 300:0.0475059 303:1 304:1 305:0.8 306:0.6 307:0.6 308:0.6 309:0.4 310:0.6 311:0.2 312:0.25 313:0.25 314:0.333333 315:0.5 318:0.5 319:0.666667 321:0.5 322:0.333333 323:0.333333 325:0.666667 326:0.333333 327:1 329:0.666667 330:0.333333 331:0.25 334:0.666667 337:0.333333 340:0.25 341:0.666667 347:0.5 348:0.666667 350:0.333333 352:0.333333 353:1 356:0.666667 358:0.666667 359:0.333333 362:0.333333 363:0.333333 365:0.333333 366:0.333333 367:1 369:0.666667 372:0.5 373:0.5 374:0.5 375:1 378:0.5 379:0.333333 383:0.25 384:0.333333 387:0.333333 390:0.25 391:0.333333 393:0.333333 394:0.333333 396:0.333333 397:0.333333 399:0.333333 400:0.333333 401:0.5 410:0.333333 412:0.5 413:0.333333 414:0.5 415:1 418:0.666667 419:0.333333 423:0.5 431:0.333333 437:0.333333 439:0.666667 447:0.333333 449:0.333333 
11.98251954450121 1:0.166667 4:0.138889 7:0.333333 13:0.444444 27:0.666667 55:0.333333 163:0.5 303:0.4 305:0.2 307:0.2 313:0.25 377:0.5 413:0.333333 427:0.5 
7.003917014204655 1:0.0526316 2:0.175439 3:0.182916 4:0.0438596 6:0.105263 8:0.157895 9:0.0526316 11:0.0456989 12:0.0345029 13:0.0701754 14:0.0526316 15:0.0526316 16:0.122807 17:0.105263 24:0.0701754 30:0.0701754 31:0.0526316 37:0.0467836 57:0.105263 68:0.0701754 70:0.105263 75:0.0701754 80:0.122807 91:0.0877193 93:0.0877193 111:0.0701754 112:0.0701754 113:0.0877193 151:0.0877193 153:0.0252812 154:0.0513557 158:0.140351 159:0.0334169 178:0.122807 183:0.122807 235:0.175439 296:0.140351 297:0.210526 303:0.6 304:0.8 305:1 307:0.2 308:0.4 309:0.2 313:0.25 316:0.666667 317:0.25 318:0.25 320:0.25 321:0.25 324:0.5 325:0.333333 332:0.25 337:0.333333 340:0.5 355:0.333333 356:0.333333 361:0.333333 368:0.333333 382:0.333333 383:0.25 416:0.5 419:0.333333 
2.754062954378205 1:0.12 2:0.4 3:0.0695082 4:0.1 5:0.0855285 8:0.12 12:0.0786667 15:0.12 17:0.12 31:0.12 53:0.48 68:0.16 87:0.12 115:0.2 132:0.2 151:0.2 154:0.117091 209:0.16 228:0.18 275:0.386667 297:0.48 303:0.6 304:0.4 305:0.4 308:0.2 313:0.25 316:0.333333 319:0.333333 325:0.333333 328:0.333333 332:0.25 334:0.333333 340:0.25 355:0.333333 360:0.333333 368:0.333333 387:0.333333 
7.941539766250067 1:0.075 2:0.25 3:0.260656 4:0.03125 6:0.225 8:0.225 12:0.0491667 14:0.075 15:0.075 33:0.15 53:0.3 68:0.1 87:0.075 110:0.09375 130:0.225 151:0.125 153:0.0360256 154:0.0731818 158:0.1 161:0.25 190:0.167857 192:0.1 268:0.4 297:0.3 303:0.6 304:0.4 305:0.4 309:0.2 313:0.25 316:0.333333 319:0.333333 324:0.25 328:0.333333 332:0.25 333:0.333333 341:0.333333 343:0.333333 347:0.25 360:0.333333 361:0.666667 368:0.333333 370:0.25 376:0.333333 
0.7991683037438281 1:0.0555556 2:0.37037 3:0.0643594 4:0.0462963 5:0.079193 6:0.111111 7:0.111111 9:0.111111 25:0.185185 26:0.148148 48:0.0740741 53:0.444444 68:0.148148 111:0.148148 140:0.185185 151:0.185185 162:0.0664315 297:0.444444 303:1 304:0.2 307:0.4 312:0.25 313:0.25 316:0.333333 324:0.25 330:0.333333 332:0.25 342:0.333333 345:0.333333 346:0.25 360:0.333333 368:0.333333 438:0.333333 
3.234118940077692 1:0.0967742 2:0.322581 3:0.11211 6:0.0967742 7:0.193548 8:0.0967742 11:0.0840271 15:0.0967742 22:0.129032 31:0.0967742 65:0.16129 68:0.129032 113:0.16129 130:0.290323 140:0.16129 151:0.16129 154:0.0944282 193:0.16129 266:0.258065 297:0.387097 303:0.6 304:0.4 305:0.2 306:0.2 308:0.2 315:0.25 316:0.333333 325:0.333333 328:0.333333 330:0.333333 332:0.25 346:0.25 368:0.333333 376:0.333333 426:0.333333 438:0.333333 
5.642837145406666 1:0.0769231 2:0.25641 3:0.222783 4:0.0961538 7:0.0769231 8:0.0769231 9:0.153846 15:0.0769231 21:0.230769 22:0.205128 53:0.153846 65:0.128205 68:0.102564 74:0.153846 89:0.153846 113:0.0641026 123:0.147436 129:0.0769231 151:0.128205 154:0.0750583 159:0.04884 160:0.045991 161:0.128205 175:0.153846 182:0.179487 193:0.25641 221:0.230769 244:0.102564 297:0.307692 303:0.6 304:0.4 305:0.2 306:0.4 313:0.25 315:0.25 316:0.333333 317:0.25 320:0.25 325:0.333333 327:0.333333 328:0.333333 332:0.25 346:0.25 348:0.333333 368:0.333333 387:0.333333 
6.622504635177275 1:0.0697674 2:0.232558 3:0.181853 4:0.0726744 5:0.0248629 6:0.139535 7:0.0348837 8:0.104651 9:0.104651 11:0.0302888 14:0.0348837 15:0.0348837 21:0.0523256 23:0.0348837 24:0.0465116 30:0.0465116 34:0.0697674 51:0.0581395 67:0.0697674 68:0.0930233 75:0.0930233 77:0.0348837 103:0.0581395 106:0.0697674 113:0.0581395 117:0.0581395 123:0.468023 149:0.0581395 151:0.116279 153:0.0335122 154:0.0340381 159:0.0221484 161:0.0581395 162:0.0208564 174:0.0465116 189:0.162791 212:0.139535 252:0.174419 281:0.348837 297:0.27907 303:1 304:0.6 305:0.4 306:0.2 307:0.4 308:0.2 309:0.2 312:0.25 315:0.25 316:0.333333 317:0.5 323:0.666667 325:0.666667 327:0.333333 332:0.5 337:0.333333 338:0.25 339:0.333333 345:0.333333 346:0.25 349:0.333333 351:0.333333 361:0.666667 368:0.333333 374:0.5 402:0.5 444:0.5 
3.881910882413364 1:0.104651 2:0.232558 3:0.0808235 4:0.0872093 5:0.0994517 6:0.0697674 8:0.139535 9:0.139535 17:0.139535 21:0.104651 25:0.116279 32:0.114341 46:0.232558 51:0.116279 68:0.0930233 113:0.0581395 123:0.133721 138:0.0930233 151:0.116279 160:0.0417128 162:0.0417128 173:0.162791 209:0.0930233 297:0.27907 303:0.8 304:0.4 305:0.2 306:0.2 307:0.2 308:0.2 311:0.2 312:0.25 316:0.333333 325:0.333333 327:0.333333 330:0.333333 332:0.25 335:0.333333 348:0.333333 361:0.333333 368:0.333333 375:0.5 392:0.333333 393:0.333333 411:0.333333 432:0.5 435:0.25 442:0.333333 
5.4613117675593 1:0.0535714 2:0.357143 4:0.0892857 8:0.107143 9:0.107143 13:0.142857 20:0.142857 22:0.142857 24:0.142857 30:0.142857 31:0.107143 40:0.142857 55:0.107143 68:0.142857 113:0.0892857 123:0.205357 130:0.321429 138:0.142857 151:0.178571 157:0.142857 181:0.142857 183:0.25 206:0.285714 297:0.428571 303:0.2 304:0.4 305:0.2 306:0.4 307:0.2 308:0.4 310:0.2 313:0.25 316:0.333333 325:0.333333 327:0.333333 328:0.333333 330:0.333333 332:0.25 335:0.333333 345:0.333333 348:0.333333 368:0.333333 404:0.333333 432:0.5 
6.994765529018008 1:0.03125 2:0.208333 3:0.108607 4:0.104167 5:0.0445461 6:0.1875 7:0.125 8:0.0625 9:0.0625 13:0.166667 21:0.09375 22:0.0833333 40:0.166667 55:0.0625 68:0.0833333 110:0.078125 113:0.0520833 122:0.0729167 151:0.104167 157:0.0833333 158:0.0833333 159:0.0396825 162:0.0373677 163:0.09375 164:0.114583 181:0.0833333 221:0.1875 262:0.125 278:0.145833 286:0.125 297:0.25 303:1 304:0.4 305:0.2 306:0.4 310:0.2 313:0.25 316:0.333333 324:0.25 325:0.333333 326:0.333333 332:0.25 345:0.333333 346:0.25 352:0.333333 354:0.25 361:0.333333 367:0.5 368:0.333333 372:0.5 386:0.333333 413:0.333333 427:0.5 446:0.5 
5.34919330747 1:0.0909091 2:0.30303 3:0.105315 4:0.0378788 5:0.0647943 6:0.0909091 7:0.0909091 10:0.0822156 21:0.136364 22:0.242424 32:0.14899 40:0.363636 68:0.121212 71:0.181818 106:0.181818 110:0.113636 117:0.151515 122:0.106061 151:0.151515 157:0.242424 162:0.0543531 179:0.151515 181:0.121212 195:0.242424 262:0.181818 286:0.181818 297:0.363636 303:1 304:0.2 306:0.4 308:0.2 310:0.2 316:0.666667 323:0.333333 324:0.25 325:0.333333 326:0.333333 332:0.25 335:0.333333 346:0.25 354:0.5 360:0.333333 368:0.333333 394:0.333333 396:0.333333 
6.646115514663071 1:0.103448 2:0.172414 3:0.179763 4:0.0215517 5:0.0737314 6:0.103448 8:0.155172 9:0.155172 15:0.103448 19:0.0344828 22:0.137931 25:0.0862069 26:0.0689655 27:0.103448 44:0.0304418 50:0.102171 56:0.0689655 68:0.0689655 70:0.103448 75:0.206897 86:0.0517241 94:0.0862069 100:0.137931 128:0.0862069 151:0.0862069 153:0.0248453 154:0.10094 159:0.0656814 160:0.030925 161:0.0862069 193:0.0862069 197:0.137931 216:0.224138 297:0.206897 303:0.8 304:0.4 305:0.2 306:0.4 307:0.6 311:0.2 312:0.25 313:0.25 316:0.666667 317:0.25 319:0.333333 321:0.25 322:0.333333 328:0.333333 332:0.25 355:0.333333 358:0.333333 364:0.333333 368:0.333333 381:0.333333 387:0.333333 422:0.333333 426:0.333333 432:0.5 443:0.5 
6.405984543272678 1:0.0967742 2:0.322581 3:0.168165 7:0.0967742 8:0.0967742 9:0.0967742 15:0.0967742 17:0.193548 42:0.158602 57:0.193548 68:0.129032 75:0.387097 77:0.0967742 100:0.387097 151:0.16129 154:0.0944282 178:0.225806 208:0.258065 210:0.225806 257:0.258065 297:0.387097 303:0.4 304:0.4 305:0.4 310:0.2 313:0.25 316:0.333333 317:0.5 322:0.333333 332:0.25 335:0.333333 349:0.333333 368:0.333333 370:0.25 389:0.5 410:0.333333 443:0.5 
7.480636914961527 1:0.153061 3:0.10639 4:0.0255102 6:0.183673 8:0.122449 11:0.05316 13:0.408163 15:0.122449 16:0.142857 28:0.116327 31:0.0612245 34:0.0612245 36:0.0612245 37:0.0544218 55:0.122449 122:0.142857 137:0.122449 154:0.0597403 155:0.0246098 158:0.0816327 163:0.183673 180:0.0816327 185:0.163265 278:0.285714 286:0.244898 303:0.6 304:0.4 305:0.6 308:0.4 309:0.6 313:0.25 326:0.333333 329:0.333333 345:0.333333 346:0.25 368:0.333333 372:0.5 374:0.5 391:0.333333 395:0.5 
11.62454443070989 1:0.0849057 3:0.0327869 4:0.0707547 5:0.0403436 6:0.0566038 7:0.113208 8:0.113208 13:0.0754717 15:0.0566038 17:0.0566038 21:0.0849057 24:0.0754717 25:0.0943396 30:0.0754717 34:0.0566038 57:0.113208 113:0.188679 154:0.0552316 158:0.150943 303:1 304:0.2 305:0.6 306:0.2 307:0.4 308:0.2 309:0.2 313:0.25 325:0.333333 333:0.333333 338:0.25 341:0.333333 343:0.333333 345:0.333333 361:0.333333 367:0.5 386:0.333333 387:0.333333 405:0.25 410:0.333333 419:0.333333 435:0.25 444:0.5 
32 1:0.1875 7:0.375 48:0.25 303:0.2 312:0.25 345:0.333333 346:0.25 425:0.5 438:0.333333 
5.064419353571429 1:0.136364 3:0.157973 4:0.227273 7:0.272727 16:0.318182 74:0.545455 123:0.522727 129:0.272727 175:0.545455 182:0.636364 185:0.727273 221:0.818182 244:0.363636 303:0.6 305:0.2 317:0.25 327:0.333333 328:0.333333 348:0.333333 403:0.5 
6.772350633615044 1:0.3 4:0.25 24:0.4 30:0.4 34:0.3 67:0.2 123:0.575 189:0.7 212:0.6 303:0.2 307:0.2 308:0.2 309:0.2 315:0.25 327:0.333333 345:0.333333 
13.85444125301427 1:0.09375 3:0.108607 7:0.1875 91:0.625 123:0.359375 303:0.4 320:0.25 327:0.333333 340:0.25 345:0.333333 361:0.666667 389:0.5 391:0.333333 402:0.5 404:0.333333 
3.156782598454421 1:0.321429 4:0.0892857 5:0.152729 6:0.214286 8:0.214286 9:0.214286 21:0.321429 32:0.35119 113:0.178571 123:0.410714 138:0.285714 160:0.128118 303:0.6 304:0.4 306:0.2 308:0.2 325:0.333333 327:0.333333 330:0.333333 335:0.333333 348:0.333333 442:0.333333 
8.276275997744751 1:0.214286 3:0.248244 6:0.428571 40:0.571429 122:0.5 262:0.857143 286:0.857143 303:0.4 310:0.2 326:0.333333 345:0.333333 354:0.25 
6.38117453216002 1:0.1875 7:0.375 16:0.4375 100:1 256:1 303:0.2 305:0.2 322:0.333333 335:0.333333 389:0.5 
13.56506070068067 1:0.0491803 2:0.0819672 3:0.113948 4:0.102459 5:0.140211 6:0.0983607 8:0.0491803 10:0.0889546 12:0.0644809 14:0.0491803 16:0.057377 23:0.0491803 25:0.0819672 26:0.0655738 33:0.0983607 35:0.0491803 45:0.0819672 47:0.0655738 51:0.0819672 53:0.0983607 57:0.0983607 63:0.0491803 65:0.0819672 68:0.0327869 78:0.0655738 116:0.0409836 148:0.0491803 190:0.11007 191:0.142077 200:0.131148 211:0.180328 217:0.0819672 236:0.196721 271:0.114754 284:0.0819672 303:0.8 304:0.6 305:0.4 307:0.6 309:0.4 311:0.4 312:0.25 313:0.5 315:0.5 316:0.333333 318:0.25 325:0.333333 332:0.25 333:0.333333 334:0.333333 354:0.25 356:0.333333 357:0.333333 364:0.333333 366:0.333333 376:0.333333 391:0.333333 429:0.5 448:0.333333 
5.395857314433417 1:0.0104167 2:0.0347222 3:0.0241348 4:0.00868056 5:0.0742435 7:0.0416667 9:0.0416667 10:0.0188411 11:0.0180892 12:0.0136574 13:0.111111 18:0.0277778 19:0.0138889 20:0.0555556 23:0.0208333 28:0.316667 31:0.0416667 35:0.125 36:0.0833333 38:0.0341435 48:0.0138889 63:0.0833333 68:0.0138889 76:0.0277778 83:0.0277778 86:0.0208333 95:0.0347222 99:0.0208333 123:0.0399306 125:0.0416667 133:0.0277778 146:0.0277778 155:0.0334967 165:0.0833333 174:0.0277778 198:0.0416667 218:0.0486111 224:0.145833 265:0.0277778 269:0.0694444 303:0.8 304:0.8 305:0.2 306:0.6 307:0.2 308:0.4 309:0.4 310:0.2 312:0.25 315:0.25 316:0.333333 317:0.25 319:0.666667 321:0.25 322:0.333333 327:0.666667 329:0.333333 331:0.25 337:0.333333 339:0.333333 341:0.333333 343:0.333333 344:0.333333 346:0.25 347:0.25 352:0.333333 358:0.333333 360:0.666667 361:0.333333 364:0.333333 366:0.666667 375:0.5 378:0.5 379:0.333333 380:0.333333 388:1 390:0.25 391:0.333333 394:0.333333 419:0.333333 420:0.5 443:0.5 
4.542144431445119 1:0.272727 8:0.272727 13:0.363636 15:0.272727 28:0.518182 36:0.272727 63:0.272727 101:0.454545 154:0.266116 155:0.109626 224:0.636364 304:0.2 305:0.4 308:0.2 309:0.2 315:0.25 322:0.333333 335:0.333333 367:0.5 
6.992526221045828 3:0.0789866 4:0.0568182 5:0.0971914 7:0.136364 14:0.136364 28:0.259091 31:0.136364 47:0.181818 48:0.0909091 49:0.14876 52:0.0909091 56:0.181818 63:0.136364 65:0.227273 77:0.136364 166:0.181818 208:0.363636 224:0.318182 303:0.8 305:0.2 308:0.4 311:0.2 312:0.75 313:0.25 315:0.5 317:0.25 334:0.333333 338:0.25 339:0.333333 347:0.25 401:0.5 443:0.5 
14.86594734993674 4:0.125 9:0.15 12:0.0983333 13:0.4 18:0.2 36:0.15 52:0.1 55:0.15 77:0.3 83:0.2 100:0.4 101:0.25 155:0.0602941 160:0.0896825 163:0.225 218:0.35 303:0.2 304:0.4 305:0.2 306:0.2 309:0.2 312:0.25 313:0.25 317:0.25 319:0.333333 322:0.666667 431:0.333333 
10.25680076216407 3:0.182916 4:0.0657895 6:0.157895 9:0.157895 13:0.210526 17:0.157895 18:0.210526 36:0.157895 57:0.631579 79:0.315789 109:0.368421 152:0.184211 153:0.0758435 155:0.0634675 159:0.100251 178:0.368421 218:0.368421 303:0.6 304:0.2 305:0.4 306:0.2 309:0.2 313:0.25 318:0.25 324:0.25 332:0.25 348:0.666667 359:0.333333 385:0.5 
2.914487534699476 1:0.09375 3:0.32582 4:0.078125 9:0.1875 22:0.25 40:0.5 47:0.25 50:0.37037 75:0.25 76:0.25 157:0.25 159:0.119048 191:0.541667 249:0.25 303:0.4 304:0.2 306:0.2 310:0.2 311:0.2 312:0.25 317:0.5 396:0.333333 411:0.333333 
6.875529992397824 1:0.136364 3:0.23696 4:0.0568182 22:0.181818 40:0.363636 42:0.44697 47:0.181818 49:0.297521 50:0.26936 75:0.181818 76:0.363636 157:0.181818 191:0.393939 210:0.636364 249:0.181818 303:0.4 306:0.2 310:0.4 311:0.2 312:0.5 317:0.5 372:0.5 396:0.333333 
23.18334860285845 1:0.0882353 3:0.102218 6:0.176471 7:0.176471 13:0.235294 15:0.176471 16:0.205882 18:0.235294 36:0.176471 69:0.176471 155:0.0709343 180:0.235294 185:0.470588 218:0.411765 303:0.6 305:0.6 306:0.2 309:0.2 316:0.333333 335:0.333333 367:0.5 406:0.333333 
9.449723833112119 3:0.30221 4:0.0543478 6:0.391304 11:0.113254 13:0.173913 36:0.130435 46:0.217391 57:0.521739 95:0.217391 100:0.347826 109:0.304348 152:0.152174 153:0.18796 155:0.0524297 207:0.173913 256:0.695652 276:0.391304 303:0.6 304:0.2 305:0.2 309:0.2 311:0.2 313:0.25 321:0.25 322:0.333333 324:0.25 332:0.25 334:0.333333 335:0.333333 
19.21193122591562 1:0.09375 3:0.217213 4:0.078125 5:0.133638 13:0.25 15:0.1875 16:0.21875 36:0.1875 37:0.166667 95:0.625 97:0.125 117:0.3125 155:0.0753676 180:0.25 185:0.5 214:0.5 303:0.6 305:0.6 309:0.4 321:0.5 325:0.333333 
3.245537819093555 1:0.1875 5:0.0890921 6:0.125 11:0.325605 12:0.0819444 13:0.333333 15:0.125 16:0.145833 55:0.25 92:0.145833 101:0.208333 132:0.208333 163:0.375 180:0.166667 303:0.4 304:0.4 305:0.6 313:0.25 320:0.25 322:0.333333 328:0.333333 337:0.333333 361:0.333333 
13.37257370022857 1:0.1 5:0.0712737 6:0.1 7:0.1 9:0.1 20:0.133333 21:0.15 24:0.133333 30:0.133333 31:0.1 32:0.163889 59:0.133333 62:0.133333 75:0.133333 100:0.266667 101:0.166667 183:0.233333 241:0.2 256:0.266667 303:0.6 304:0.2 306:0.4 307:0.2 308:0.6 314:0.666667 317:0.25 322:0.666667 335:0.333333 337:0.333333 338:0.5 372:0.5 437:0.333333 
12.88116253907233 3:0.128719 4:0.0925926 5:0.0395965 6:0.111111 7:0.0555556 9:0.0555556 10:0.0502429 12:0.0364198 16:0.0648148 20:0.148148 24:0.0740741 26:0.0740741 31:0.0555556 33:0.111111 39:0.0199805 51:0.0925926 52:0.037037 54:0.0493827 78:0.0740741 81:0.037037 96:0.0555556 104:0.0740741 119:0.0925926 125:0.222222 153:0.0266857 160:0.0332158 166:0.0740741 171:0.12963 200:0.148148 240:0.166667 269:0.185185 273:0.18661 283:0.203704 291:0.162037 302:0.0740741 303:1 304:0.6 305:0.2 306:0.2 307:0.4 308:0.2 309:0.2 310:0.2 312:0.5 313:0.25 318:0.5 321:0.25 323:0.333333 326:0.333333 327:0.333333 337:0.333333 340:0.25 342:0.333333 348:0.333333 378:0.5 384:0.333333 398:0.5 412:0.5 423:0.5 
5.706771742720968 1:0.115385 3:0.0891131 4:0.0320513 5:0.0548259 7:0.153846 8:0.0769231 16:0.0897436 17:0.153846 18:0.0512821 25:0.128205 47:0.205128 53:0.153846 57:0.153846 76:0.102564 78:0.102564 83:0.102564 104:0.102564 158:0.102564 178:0.179487 188:0.25641 198:0.153846 202:0.179487 232:0.25641 234:0.307692 249:0.102564 303:0.8 304:0.2 305:0.4 306:0.2 307:0.2 311:0.2 313:0.5 317:0.25 318:0.25 319:0.333333 323:0.333333 334:0.333333 336:0.333333 339:0.333333 371:0.333333 392:0.333333 400:0.333333 401:0.5 435:0.25 450:0.5 
3.197987022633576 6:0.6 17:0.6 52:0.4 303:0.2 305:0.2 312:0.25 429:0.5 
0.7718719531755232 1:0.0352941 3:0.0613308 4:0.0882353 7:0.0705882 8:0.0352941 9:0.105882 12:0.0231373 14:0.0352941 22:0.0470588 25:0.0588235 27:0.0705882 32:0.0578431 40:0.0470588 42:0.0578431 43:0.0220588 47:0.0470588 51:0.0588235 52:0.0705882 57:0.0705882 61:0.0470588 65:0.117647 69:0.0352941 70:0.0705882 83:0.0470588 87:0.0352941 93:0.0588235 103:0.0588235 109:0.164706 144:0.0823529 157:0.0470588 161:0.0588235 166:0.0941176 181:0.0470588 188:0.117647 245:0.0941176 303:0.6 304:0.6 305:0.2 306:0.2 307:0.4 308:0.2 310:0.4 311:0.4 312:0.5 313:0.25 314:0.333333 315:0.25 316:0.666667 319:0.666667 321:0.25 323:0.333333 324:0.25 331:0.25 333:0.333333 338:0.75 342:0.333333 343:0.333333 348:0.333333 355:0.666667 367:0.5 369:0.333333 381:0.333333 405:0.25 408:0.333333 420:0.5 439:0.333333 
